{"learner":{"attributes":{"scikit_learn":"{\"_estimator_type\": \"regressor\"}"},"feature_names":[],"feature_types":[],"gradient_booster":{"model":{"gbtree_model_param":{"num_parallel_tree":"1","num_trees":"250"},"iteration_indptr":[0,1,2,3,4,5,6,7,8,9,10,11,12,13,14,15,16,17,18,19,20,21,22,23,24,25,26,27,28,29,30,31,32,33,34,35,36,37,38,39,40,41,42,43,44,45,46,47,48,49,50,51,52,53,54,55,56,57,58,59,60,61,62,63,64,65,66,67,68,69,70,71,72,73,74,75,76,77,78,79,80,81,82,83,84,85,86,87,88,89,90,91,92,93,94,95,96,97,98,99,100,101,102,103,104,105,106,107,108,109,110,111,112,113,114,115,116,117,118,119,120,121,122,123,124,125,126,127,128,129,130,131,132,133,134,135,136,137,138,139,140,141,142,143,144,145,146,147,148,149,150,151,152,153,154,155,156,157,158,159,160,161,162,163,164,165,166,167,168,169,170,171,172,173,174,175,176,177,178,179,180,181,182,183,184,185,186,187,188,189,190,191,192,193,194,195,196,197,198,199,200,201,202,203,204,205,206,207,208,209,210,211,212,213,214,215,216,217,218,219,220,221,222,223,224,225,226,227,228,229,230,231,232,233,234,235,236,237,238,239,240,241,242,243,244,245,246,247,248,249,250],"tree_info":[0,0,0,0,0,0,0,0,0,0,0,0,0,0,0,0,0,0,0,0,0,0,0,0,0,0,0,0,0,0,0,0,0,0,0,0,0,0,0,0,0,0,0,0,0,0,0,0,0,0,0,0,0,0,0,0,0,0,0,0,0,0,0,0,0,0,0,0,0,0,0,0,0,0,0,0,0,0,0,0,0,0,0,0,0,0,0,0,0,0,0,0,0,0,0,0,0,0,0,0,0,0,0,0,0,0,0,0,0,0,0,0,0,0,0,0,0,0,0,0,0,0,0,0,0,0,0,0,0,0,0,0,0,0,0,0,0,0,0,0,0,0,0,0,0,0,0,0,0,0,0,0,0,0,0,0,0,0,0,0,0,0,0,0,0,0,0,0,0,0,0,0,0,0,0,0,0,0,0,0,0,0,0,0,0,0,0,0,0,0,0,0,0,0,0,0,0,0,0,0,0,0,0,0,0,0,0,0,0,0,0,0,0,0,0,0,0,0,0,0,0,0,0,0,0,0,0,0,0,0,0,0,0,0,0,0,0,0,0,0,0,0,0,0,0,0,0,0,0,0],"trees":[{"base_weights":[1.6665425E-7,-1.3938503E0,2.095018E0,-2.0527358E0,-4.1580245E-1,1.344605E0,3.2840111E0,-2.1823041E0,-1.5133075E0,-1.6688081E0,8.2225226E-2,2.0316477E0,8.6022466E-1,2.8192725E0,4.282904E0,-1.1099179E-1,-1.9553145E0,-1.0618079E0,-2.0837681E0,6.3645375E-1,-1.7649908E0,7.6679015E-1,-2.1171801E-1,1.6056039E0,2.677152E0,1.4038196E-1,1.4899931E0,3.421987E0,2.2266922E0,3.8843877E0,4.9077196E0,-8.83811E-2,-1.0999469E-1,-3.4281038E-2,-1.0015658E-1,-3.2814138E-2,-1.0470454E-1,6.1888058E-2,-4.4314885E-3,-9.4768055E-2,-5.7788055E-2,4.5918175E-3,5.533383E-2,-3.0753357E-2,7.833933E-3,1.2079237E-1,5.269698E-2,1.5754E-1,9.951769E-2,3.970728E-2,-2.355436E-2,9.2701584E-2,3.0644124E-2,2.0729236E-1,1.5274869E-1,1.3095143E-1,6.891114E-2,2.1522366E-1,1.5660952E-1,2.4689396E-1,2.6183223E-2],"categories":[],"categories_nodes":[],"categories_segments":[],"categories_sizes":[],"default_left":[0,0,0,0,0,0,0,0,0,0,0,0,0,0,0,0,0,0,0,0,0,0,0,0,0,0,0,0,0,0,0,0,0,0,0,0,0,0,0,0,0,0,0,0,0,0,0,0,0,0,0,0,0,0,0,0,0,0,0,0,0],"id":0,"left_children":[1,3,5,7,9,11,13,15,17,19,21,23,25,27,29,-1,31,33,35,37,39,41,43,45,47,49,51,53,55,57,59,-1,-1,-1,-1,-1,-1,-1,-1,-1,-1,-1,-1,-1,-1,-1,-1,-1,-1,-1,-1,-1,-1,-1,-1,-1,-1,-1,-1,-1,-1],"loss_changes":[2.0414709E4,2.7044277E3,2.4875996E3,1.7198828E2,1.0553744E3,5.6865454E2,4.892871E2,1.2869141E1,1.23735596E2,1.0777368E2,2.4384367E2,1.9041089E2,4.5629852E2,2.5667627E2,6.5845215E1,0E0,9.653442E0,9.6007965E1,1.7937622E0,8.829662E0,3.4503906E1,8.340277E1,1.2610278E2,1.8920923E2,8.4812744E1,1.8865933E2,1.7032886E2,8.4302734E1,1.215553E2,5.3822998E1,1.4470459E1,0E0,0E0,0E0,0E0,0E0,0E0,0E0,0E0,0E0,0E0,0E0,0E0,0E0,0E0,0E0,0E0,0E0,0E0,0E0,0E0,0E0,0E0,0E0,0E0,0E0,0E0,0E0,0E0,0E0,0E0],"parents":[2147483647,0,0,1,1,2,2,3,3,4,4,5,5,6,6,7,7,8,8,9,9,10,10,11,11,12,12,13,13,14,14,16,16,17,17,18,18,19,19,20,20,21,21,22,22,23,23,24,24,25,25,26,26,27,27,28,28,29,29,30,30],"right_children":[2,4,6,8,10,12,14,16,18,20,22,24,26,28,30,-1,32,34,36,38,40,42,44,46,48,50,52,54,56,58,60,-1,-1,-1,-1,-1,-1,-1,-1,-1,-1,-1,-1,-1,-1,-1,-1,-1,-1,-1,-1,-1,-1,-1,-1,-1,-1,-1,-1,-1,-1],"split_conditions":[2.4316315E-1,-6.960913E-1,1.155896E0,-9.363223E-1,-7.642655E-1,4.3323275E-1,1.7911156E0,-1.0528996E0,-7.897062E-1,-7.6475996E-1,-6.498007E-1,6.4610505E-1,7.458814E-1,1.2324779E0,2.183873E0,-1.1099179E-1,-9.6002114E-1,-5.4875445E-1,-1.6920475E0,-7.412423E-1,-4.6421072E-1,-4.541915E-1,-1.4985631E-1,4.4174975E-1,1.2030846E0,3.3289433E-1,1.0202342E0,1.2104251E0,1.4543728E0,1.8677042E0,7.1458703E-1,-8.83811E-2,-1.0999469E-1,-3.4281038E-2,-1.0015658E-1,-3.2814138E-2,-1.0470454E-1,6.1888058E-2,-4.4314885E-3,-9.4768055E-2,-5.7788055E-2,4.5918175E-3,5.533383E-2,-3.0753357E-2,7.833933E-3,1.2079237E-1,5.269698E-2,1.5754E-1,9.951769E-2,3.970728E-2,-2.355436E-2,9.2701584E-2,3.0644124E-2,2.0729236E-1,1.5274869E-1,1.3095143E-1,6.891114E-2,2.1522366E-1,1.5660952E-1,2.4689396E-1,2.6183223E-2],"split_indices":[99,99,99,99,97,4,99,99,4,88,78,99,99,4,99,0,4,3,34,15,75,99,99,3,3,3,3,3,3,4,84,0,0,0,0,0,0,0,0,0,0,0,0,0,0,0,0,0,0,0,0,0,0,0,0,0,0,0,0,0,0],"split_type":[0,0,0,0,0,0,0,0,0,0,0,0,0,0,0,0,0,0,0,0,0,0,0,0,0,0,0,0,0,0,0,0,0,0,0,0,0,0,0,0,0,0,0,0,0,0,0,0,0,0,0,0,0,0,0,0,0,0,0,0,0],"sum_hessian":[6.989E3,4.197E3,2.792E3,2.507E3,1.69E3,1.713E3,1.079E3,2.019E3,4.88E2,4.8E2,1.21E3,7.07E2,1.006E3,7.39E2,3.4E2,1.725E3,2.94E2,2.74E2,2.14E2,1.9E1,4.61E2,3.63E2,8.47E2,4.28E2,2.79E2,4.7E2,5.36E2,3.64E2,3.75E2,2.12E2,1.28E2,1.71E2,1.23E2,1.97E2,7.7E1,2E0,2.12E2,1E1,9E0,3.78E2,8.3E1,1.22E2,2.41E2,4.04E2,4.43E2,1.72E2,2.56E2,1.63E2,1.16E2,2.27E2,2.43E2,3.78E2,1.58E2,1.19E2,2.45E2,2.55E2,1.2E2,1.33E2,7.9E1,1.27E2,1E0],"tree_param":{"num_deleted":"0","num_feature":"103","num_nodes":"61","size_leaf_vector":"1"}},{"base_weights":[1.6264616E-4,-1.479834E0,1.7830662E0,-2.0152383E0,-6.7189217E-1,9.335463E-1,2.88917E0,-1.04985856E-1,-1.6787993E0,-1.7350798E0,-1.7242752E-1,1.5755949E0,3.2661998E-1,2.3587768E0,3.7862136E0,-1.3981766E0,-1.0359945E-1,-3.242046E-1,-1.8436117E0,1.7073488E-1,-6.900702E-1,1.2719862E0,2.379023E0,-2.2568819E-1,1.0507079E0,2.9060738E0,1.6960489E0,3.4452186E0,4.581633E0,-5.2403666E-2,-1.0252488E-1,-6.7076616E-2,3.2295529E-3,-9.593685E-2,-6.4467244E-2,-1.8950664E-2,3.3008795E-2,-7.9578504E-2,-2.4132868E-2,1.00816846E-1,4.1033592E-2,1.4234708E-1,7.184612E-2,-5.1123567E-2,1.1092103E-2,7.8473724E-2,1.39440615E-2,1.597883E-1,1.11336626E-1,1.0079404E-1,2.9488761E-2,1.9343667E-1,1.3267794E-1,2.6561376E-1,2.0698693E-1],"categories":[],"categories_nodes":[],"categories_segments":[],"categories_sizes":[],"default_left":[0,0,0,0,0,0,0,0,0,0,0,0,0,0,0,0,0,0,0,0,0,0,0,0,0,0,0,0,0,0,0,0,0,0,0,0,0,0,0,0,0,0,0,0,0,0,0,0,0,0,0,0,0,0,0],"id":1,"left_children":[1,3,5,7,9,11,13,-1,15,17,19,21,23,25,27,29,-1,31,33,35,37,39,41,43,45,47,49,51,53,-1,-1,-1,-1,-1,-1,-1,-1,-1,-1,-1,-1,-1,-1,-1,-1,-1,-1,-1,-1,-1,-1,-1,-1,-1,-1],"loss_changes":[1.844709E4,1.651084E3,2.976955E3,6.1760742E1,8.0898236E2,6.989542E2,6.4622656E2,0E0,4.8520508E1,7.397412E1,1.845035E2,2.0967896E2,3.6976294E2,3.0990283E2,1.2254492E2,6.0655334E1,0E0,1.4325826E1,1.6347168E1,1.6841852E2,7.664264E1,2.1166467E2,1.00825806E2,1.8743372E2,1.5972144E2,8.616675E1,1.385708E2,1.1077002E2,2.643872E1,0E0,0E0,0E0,0E0,0E0,0E0,0E0,0E0,0E0,0E0,0E0,0E0,0E0,0E0,0E0,0E0,0E0,0E0,0E0,0E0,0E0,0E0,0E0,0E0,0E0,0E0],"parents":[2147483647,0,0,1,1,2,2,3,3,4,4,5,5,6,6,8,8,9,9,10,10,11,11,12,12,13,13,14,14,15,15,17,17,18,18,19,19,20,20,21,21,22,22,23,23,24,24,25,25,26,26,27,27,28,28],"right_children":[2,4,6,8,10,12,14,-1,16,18,20,22,24,26,28,30,-1,32,34,36,38,40,42,44,46,48,50,52,54,-1,-1,-1,-1,-1,-1,-1,-1,-1,-1,-1,-1,-1,-1,-1,-1,-1,-1,-1,-1,-1,-1,-1,-1,-1,-1],"split_conditions":[4.3064352E-2,-8.138357E-1,9.7417414E-1,-1.0024087E0,-7.642655E-1,4.115381E-1,1.5969849E0,-1.04985856E-1,-8.3002627E-1,-7.697012E-1,-4.5125315E-1,6.074034E-1,6.6912127E-1,1.1531174E0,2.1222723E0,-7.5211877E-1,-1.0359945E-1,-9.592722E-1,-3.611875E-1,-4.6283755E-1,-4.1605672E-1,2.612369E-1,1.191923E0,-7.025392E-1,8.071102E-1,1.5095536E0,1.4753752E0,1.7723323E0,1.8181736E0,-5.2403666E-2,-1.0252488E-1,-6.7076616E-2,3.2295529E-3,-9.593685E-2,-6.4467244E-2,-1.8950664E-2,3.3008795E-2,-7.9578504E-2,-2.4132868E-2,1.00816846E-1,4.1033592E-2,1.4234708E-1,7.184612E-2,-5.1123567E-2,1.1092103E-2,7.8473724E-2,1.39440615E-2,1.597883E-1,1.11336626E-1,1.0079404E-1,2.9488761E-2,1.9343667E-1,1.3267794E-1,2.6561376E-1,2.0698693E-1],"split_indices":[99,99,99,99,97,4,99,0,4,4,4,99,99,4,99,3,0,63,75,99,99,3,3,98,3,3,3,4,4,0,0,0,0,0,0,0,0,0,0,0,0,0,0,0,0,0,0,0,0,0,0,0,0,0,0],"split_type":[0,0,0,0,0,0,0,0,0,0,0,0,0,0,0,0,0,0,0,0,0,0,0,0,0,0,0,0,0,0,0,0,0,0,0,0,0,0,0,0,0,0,0,0,0,0,0,0,0,0,0,0,0,0,0],"sum_hessian":[6.989E3,3.819E3,3.17E3,2.296E3,1.523E3,1.794E3,1.376E3,1.831E3,4.65E2,4.86E2,1.037E3,8.71E2,9.23E2,8.67E2,5.09E2,2.74E2,1.91E2,3.5E1,4.51E2,6.24E2,4.13E2,6.34E2,2.37E2,5.24E2,3.99E2,4.73E2,3.94E2,3.6E2,1.49E2,1.8E2,9.4E1,9E0,2.6E1,3.95E2,5.6E1,2.94E2,3.3E2,7.6E1,3.37E2,2.38E2,3.96E2,1.57E2,8E1,1.88E2,3.36E2,2.38E2,1.61E2,3.29E2,1.44E2,3.05E2,8.9E1,2.32E2,1.28E2,5.2E1,9.7E1],"tree_param":{"num_deleted":"0","num_feature":"103","num_nodes":"55","size_leaf_vector":"1"}},{"base_weights":[2.87694E-4,-1.2608688E0,1.8958604E0,-1.8660778E0,-3.981023E-1,1.1933264E0,2.939528E0,-1.9793526E0,-1.4264486E0,-1.5175763E0,5.6184053E-2,1.6672417E0,5.5578536E-1,2.5274246E0,3.8771744E0,-1.0019916E-1,-1.789216E0,-1.0655398E0,-1.9033244E0,5.817405E-1,-1.6062598E0,2.992862E-1,-6.5323514E-1,1.2874835E0,2.2806914E0,-2.7515545E-1,1.0180186E0,2.8226674E0,1.4462103E0,3.5189428E0,4.438617E0,-8.179412E-2,-9.908917E-2,-3.516903E-2,-9.1045156E-2,-9.5457375E-2,-1.5992308E-2,3.976855E-2,-4.8258297E-2,-8.6130925E-2,-5.2657228E-2,-7.1300934E-3,4.1002337E-2,-1.0421653E-2,-6.1481584E-2,8.467575E-2,2.3343379E-2,1.3517655E-1,7.6138966E-2,1.7885255E-2,-4.4088032E-2,7.479263E-2,1.6681675E-2,1.8152572E-1,1.2837161E-1,1.06653765E-1,4.272897E-2,1.8999813E-1,1.2878934E-1,2.5461686E-1,2.0138934E-1],"categories":[],"categories_nodes":[],"categories_segments":[],"categories_sizes":[],"default_left":[0,0,0,0,0,0,0,0,0,0,0,0,0,0,0,0,0,0,0,0,0,0,0,0,0,0,0,0,0,0,0,0,0,0,0,0,0,0,0,0,0,0,0,0,0,0,0,0,0,0,0,0,0,0,0,0,0,0,0,0,0],"id":2,"left_children":[1,3,5,7,9,11,13,15,17,19,21,23,25,27,29,-1,31,33,35,37,39,41,43,45,47,49,51,53,55,57,59,-1,-1,-1,-1,-1,-1,-1,-1,-1,-1,-1,-1,-1,-1,-1,-1,-1,-1,-1,-1,-1,-1,-1,-1,-1,-1,-1,-1,-1,-1],"loss_changes":[1.6712781E4,2.1912603E3,2.0443535E3,1.2003027E2,8.809143E2,5.0394995E2,4.2413574E2,5.588867E0,8.557532E1,9.402161E1,2.128403E2,2.202417E2,2.745193E2,2.4586768E2,5.2964844E1,0E0,3.6673584E0,7.859921E1,1.3994751E0,7.707458E0,2.9078613E1,2.1159528E2,8.0504166E1,1.9712769E2,1.1285681E2,9.8592896E1,1.4960425E2,1.1728027E2,6.726007E1,4.6666992E1,1.41345215E1,0E0,0E0,0E0,0E0,0E0,0E0,0E0,0E0,0E0,0E0,0E0,0E0,0E0,0E0,0E0,0E0,0E0,0E0,0E0,0E0,0E0,0E0,0E0,0E0,0E0,0E0,0E0,0E0,0E0,0E0],"parents":[2147483647,0,0,1,1,2,2,3,3,4,4,5,5,6,6,7,7,8,8,9,9,10,10,11,11,12,12,13,13,14,14,16,16,17,17,18,18,19,19,20,20,21,21,22,22,23,23,24,24,25,25,26,26,27,27,28,28,29,29,30,30],"right_children":[2,4,6,8,10,12,14,16,18,20,22,24,26,28,30,-1,32,34,36,38,40,42,44,46,48,50,52,54,56,58,60,-1,-1,-1,-1,-1,-1,-1,-1,-1,-1,-1,-1,-1,-1,-1,-1,-1,-1,-1,-1,-1,-1,-1,-1,-1,-1,-1,-1,-1,-1],"split_conditions":[2.4316315E-1,-7.1208745E-1,1.1325623E0,-9.528216E-1,-7.642655E-1,7.0931745E-1,1.7911156E0,-1.0528996E0,-7.897062E-1,-7.6475996E-1,1.8454075E-2,6.9004816E-1,6.6912127E-1,1.6820068E0,2.183873E0,-1.0019916E-1,-9.6002114E-1,-6.340553E-1,2.1190193E0,1.0888125E0,-4.6421072E-1,-2.357331E-1,-1.9298205E-1,7.399225E-1,1.2326406E0,2.7016917E-1,7.893458E-1,9.5861155E-1,1.0706723E0,2.1283891E0,1.8181736E0,-8.179412E-2,-9.908917E-2,-3.516903E-2,-9.1045156E-2,-9.5457375E-2,-1.5992308E-2,3.976855E-2,-4.8258297E-2,-8.6130925E-2,-5.2657228E-2,-7.1300934E-3,4.1002337E-2,-1.0421653E-2,-6.1481584E-2,8.467575E-2,2.3343379E-2,1.3517655E-1,7.6138966E-2,1.7885255E-2,-4.4088032E-2,7.479263E-2,1.6681675E-2,1.8152572E-1,1.2837161E-1,1.06653765E-1,4.272897E-2,1.8999813E-1,1.2878934E-1,2.5461686E-1,2.0138934E-1],"split_indices":[99,99,99,99,97,4,99,99,4,88,4,99,99,4,99,0,4,3,72,74,75,99,3,3,3,3,3,3,3,4,4,0,0,0,0,0,0,0,0,0,0,0,0,0,0,0,0,0,0,0,0,0,0,0,0,0,0,0,0,0,0],"split_type":[0,0,0,0,0,0,0,0,0,0,0,0,0,0,0,0,0,0,0,0,0,0,0,0,0,0,0,0,0,0,0,0,0,0,0,0,0,0,0,0,0,0,0,0,0,0,0,0,0,0,0,0,0,0,0,0,0,0,0,0,0],"sum_hessian":[6.989E3,4.197E3,2.792E3,2.466E3,1.731E3,1.67E3,1.122E3,1.958E3,5.08E2,4.99E2,1.232E3,9.57E2,7.13E2,7.82E2,3.4E2,1.725E3,2.33E2,2.91E2,2.17E2,2E1,4.79E2,9.18E2,3.14E2,5.93E2,3.64E2,2.55E2,4.58E2,6.13E2,1.69E2,2.12E2,1.28E2,1.35E2,9.8E1,1.98E2,9.3E1,2.16E2,1E0,1.8E1,2E0,3.94E2,8.5E1,4.97E2,4.21E2,1.78E2,1.36E2,3.96E2,1.97E2,2.32E2,1.32E2,1.25E2,1.3E2,2.69E2,1.89E2,1.44E2,4.69E2,7.7E1,9.2E1,1.61E2,5.1E1,4.5E1,8.3E1],"tree_param":{"num_deleted":"0","num_feature":"103","num_nodes":"61","size_leaf_vector":"1"}},{"base_weights":[4.041738E-4,-1.314851E0,1.6417242E0,-1.8200322E0,-5.819072E-1,9.300183E-1,2.7014158E0,-9.476516E-2,-1.520212E0,-1.523259E0,-1.1157108E-1,4.5493327E-2,1.2708951E0,2.173883E0,3.4106333E0,-1.2679399E0,-9.368107E-2,-1.6695786E0,-7.9261976E-1,2.2750537E-1,-6.131747E-1,-6.000977E-1,5.33895E-1,1.8550503E0,9.399809E-1,2.6907375E0,1.5024548E0,3.113359E0,4.1449547E0,-4.740046E-2,-9.320728E-2,-8.809849E-2,-6.6937625E-2,2.4880324E-3,-5.7721492E-2,-1.441092E-2,3.5167444E-2,-5.7569135E-2,-1.1375895E-2,-4.4799814E-4,-5.09846E-2,6.031411E-3,5.339821E-2,8.189705E-2,1.4013304E-1,1.5961139E-2,6.677379E-2,1.5062752E-1,9.853892E-2,1.000417E-1,3.2672938E-2,1.7502606E-1,1.1895329E-1,2.3786263E-1,1.8536156E-1],"categories":[],"categories_nodes":[],"categories_segments":[],"categories_sizes":[],"default_left":[0,0,0,0,0,0,0,0,0,0,0,0,0,0,0,0,0,0,0,0,0,0,0,0,0,0,0,0,0,0,0,0,0,0,0,0,0,0,0,0,0,0,0,0,0,0,0,0,0,0,0,0,0,0,0],"id":3,"left_children":[1,3,5,7,9,11,13,-1,15,17,19,21,23,25,27,29,-1,31,33,35,37,39,41,43,45,47,49,51,53,-1,-1,-1,-1,-1,-1,-1,-1,-1,-1,-1,-1,-1,-1,-1,-1,-1,-1,-1,-1,-1,-1,-1,-1,-1,-1],"loss_changes":[1.50918545E4,1.4359565E3,2.3430156E3,4.895703E1,7.015916E2,5.613613E2,4.5988086E2,0E0,3.9170654E1,5.512329E1,1.8008623E2,1.639651E2,2.580586E2,2.4547241E2,1.03009766E2,5.068753E1,0E0,1.1059448E1,2.7487793E1,1.5529794E2,8.836769E1,5.5551384E1,6.520224E1,9.5190796E1,2.1070941E2,8.789844E1,1.3197595E2,1.00270996E2,2.2566406E1,0E0,0E0,0E0,0E0,0E0,0E0,0E0,0E0,0E0,0E0,0E0,0E0,0E0,0E0,0E0,0E0,0E0,0E0,0E0,0E0,0E0,0E0,0E0,0E0,0E0,0E0],"parents":[2147483647,0,0,1,1,2,2,3,3,4,4,5,5,6,6,8,8,9,9,10,10,11,11,12,12,13,13,14,14,15,15,17,17,18,18,19,19,20,20,21,21,22,22,23,23,24,24,25,25,26,26,27,27,28,28],"right_children":[2,4,6,8,10,12,14,-1,16,18,20,22,24,26,28,30,-1,32,34,36,38,40,42,44,46,48,50,52,54,-1,-1,-1,-1,-1,-1,-1,-1,-1,-1,-1,-1,-1,-1,-1,-1,-1,-1,-1,-1,-1,-1,-1,-1,-1,-1],"split_conditions":[7.655391E-2,-8.138357E-1,1.0539162E0,-1.0024087E0,-7.59178E-1,-8.30112E-1,1.5705581E0,-9.476516E-2,-8.3002627E-1,-7.919392E-1,-2.2564048E-1,-7.919392E-1,1.20177425E-1,1.2025561E0,2.1222723E0,-7.5211877E-1,-9.368107E-2,-6.6624695E-1,-3.3340204E-1,-4.541915E-1,-2.4704136E-1,6.447327E-1,6.377488E-1,7.3510355E-1,5.789655E-1,1.5171541E0,1.2187701E0,1.7723323E0,1.8677042E0,-4.740046E-2,-9.320728E-2,-8.809849E-2,-6.6937625E-2,2.4880324E-3,-5.7721492E-2,-1.441092E-2,3.5167444E-2,-5.7569135E-2,-1.1375895E-2,-4.4799814E-4,-5.09846E-2,6.031411E-3,5.339821E-2,8.189705E-2,1.4013304E-1,1.5961139E-2,6.677379E-2,1.5062752E-1,9.853892E-2,1.000417E-1,3.2672938E-2,1.7502606E-1,1.1895329E-1,2.3786263E-1,1.8536156E-1],"split_indices":[99,99,99,99,96,23,99,0,4,25,3,25,4,4,99,3,0,26,4,99,99,7,99,99,99,3,3,4,4,0,0,0,0,0,0,0,0,0,0,0,0,0,0,0,0,0,0,0,0,0,0,0,0,0,0],"split_type":[0,0,0,0,0,0,0,0,0,0,0,0,0,0,0,0,0,0,0,0,0,0,0,0,0,0,0,0,0,0,0,0,0,0,0,0,0,0,0,0,0,0,0,0,0,0,0,0,0,0,0,0,0,0,0],"sum_hessian":[6.989E3,3.88E3,3.109E3,2.296E3,1.584E3,1.861E3,1.248E3,1.831E3,4.65E2,5.27E2,1.057E3,5.18E2,1.343E3,7.18E2,5.3E2,2.74E2,1.91E2,4.38E2,8.9E1,6.31E2,4.26E2,2.23E2,2.95E2,4.84E2,8.59E2,4.04E2,3.14E2,3.81E2,1.49E2,1.8E2,9.4E1,3.39E2,9.9E1,2.7E1,6.2E1,3.03E2,3.28E2,1.77E2,2.49E2,9.3E1,1.3E2,1.67E2,1.28E2,3.96E2,8.8E1,3.35E2,5.24E2,2.77E2,1.27E2,1.97E2,1.17E2,2.47E2,1.34E2,5.8E1,9.1E1],"tree_param":{"num_deleted":"0","num_feature":"103","num_nodes":"55","size_leaf_vector":"1"}},{"base_weights":[5.0188927E-4,-1.1397169E0,1.7142998E0,-1.6154517E0,-2.4456665E-1,1.2336868E0,2.991378E0,-1.7617012E0,-1.0827268E0,3.5948825E-1,-9.6344197E-1,1.6184963E-1,1.4362873E0,3.2284606E0,1.9586511E0,-9.038784E-2,-1.5570574E0,-5.243942E-1,-1.6802224E0,1.0420282E0,-9.7249605E-2,-1.5273869E0,-5.628991E-1,-4.1017178E-1,8.0384856E-1,2.1941893E0,1.2565966E0,2.993146E0,4.026962E0,6.97429E-1,2.1207085E0,-6.883117E-2,-8.9759946E-2,-8.897777E-3,-7.083101E-2,-6.38153E-2,-8.931615E-2,3.2488275E-2,8.889273E-2,-4.4029184E-2,2.223812E-2,-7.866445E-2,-3.119016E-2,-5.750193E-3,-5.463624E-2,-3.760984E-2,1.967911E-2,2.402073E-2,8.3782904E-2,9.62764E-2,1.5576112E-1,3.870897E-2,8.706955E-2,1.6418277E-1,1.1995156E-1,2.306603E-1,1.8207228E-1,1.4349786E-2,7.352316E-2,1.2284656E-1,7.114949E-2],"categories":[],"categories_nodes":[],"categories_segments":[],"categories_sizes":[],"default_left":[0,0,0,0,0,0,0,0,0,0,0,0,0,0,0,0,0,0,0,0,0,0,0,0,0,0,0,0,0,0,0,0,0,0,0,0,0,0,0,0,0,0,0,0,0,0,0,0,0,0,0,0,0,0,0,0,0,0,0,0,0],"id":4,"left_children":[1,3,5,7,9,11,13,15,17,19,21,23,25,27,29,-1,31,33,35,37,39,41,43,45,47,49,51,53,55,57,59,-1,-1,-1,-1,-1,-1,-1,-1,-1,-1,-1,-1,-1,-1,-1,-1,-1,-1,-1,-1,-1,-1,-1,-1,-1,-1,-1,-1,-1,-1],"loss_changes":[1.3661145E4,1.7873408E3,1.7105967E3,2.1164648E2,6.3346844E2,4.408086E2,1.8049121E2,1.7438965E1,1.9694446E2,2.4731262E2,1.4957904E2,1.1931456E2,2.2985205E2,1.0425586E2,2.8157593E1,0E0,1.4802185E1,9.495119E1,9.976807E0,9.063144E1,2.0249004E2,1.0466064E1,9.266115E1,4.757954E1,4.2336823E1,7.4668945E1,3.220984E2,7.5313965E1,1.4390137E1,5.2890043E0,2.6531128E1,0E0,0E0,0E0,0E0,0E0,0E0,0E0,0E0,0E0,0E0,0E0,0E0,0E0,0E0,0E0,0E0,0E0,0E0,0E0,0E0,0E0,0E0,0E0,0E0,0E0,0E0,0E0,0E0,0E0,0E0],"parents":[2147483647,0,0,1,1,2,2,3,3,4,4,5,5,6,6,7,7,8,8,9,9,10,10,11,11,12,12,13,13,14,14,16,16,17,17,18,18,19,19,20,20,21,21,22,22,23,23,24,24,25,25,26,26,27,27,28,28,29,29,30,30],"right_children":[2,4,6,8,10,12,14,16,18,20,22,24,26,28,30,-1,32,34,36,38,40,42,44,46,48,50,52,54,56,58,60,-1,-1,-1,-1,-1,-1,-1,-1,-1,-1,-1,-1,-1,-1,-1,-1,-1,-1,-1,-1,-1,-1,-1,-1,-1,-1,-1,-1,-1,-1],"split_conditions":[2.4316315E-1,-5.540125E-1,1.3637626E0,-8.8370407E-1,-5.176755E-2,-5.27362E-1,-7.269798E-1,-1.0456485E0,-8.2224745E-1,-2.1165892E-1,-7.64609E-1,-7.64609E-1,9.040755E-3,2.1222723E0,-7.64609E-1,-9.038784E-2,-8.719552E-1,-4.695969E-1,-5.0160795E-1,-2.357331E-1,-1.8714601E-1,6.097538E-1,-1.9298205E-1,8.1395954E-1,8.4840506E-1,8.01892E-1,8.5444367E-1,1.6646712E0,1.8181736E0,7.9897165E-1,1.9583689E0,-6.883117E-2,-8.9759946E-2,-8.897777E-3,-7.083101E-2,-6.38153E-2,-8.931615E-2,3.2488275E-2,8.889273E-2,-4.4029184E-2,2.223812E-2,-7.866445E-2,-3.119016E-2,-5.750193E-3,-5.463624E-2,-3.760984E-2,1.967911E-2,2.402073E-2,8.3782904E-2,9.62764E-2,1.5576112E-1,3.870897E-2,8.706955E-2,1.6418277E-1,1.1995156E-1,2.306603E-1,1.8207228E-1,1.4349786E-2,7.352316E-2,1.2284656E-1,7.114949E-2],"split_indices":[99,99,99,99,4,25,87,99,4,3,2,75,4,99,79,0,4,3,4,99,99,26,3,99,99,99,99,4,4,57,4,0,0,0,0,0,0,0,0,0,0,0,0,0,0,0,0,0,0,0,0,0,0,0,0,0,0,0,0,0,0],"split_type":[0,0,0,0,0,0,0,0,0,0,0,0,0,0,0,0,0,0,0,0,0,0,0,0,0,0,0,0,0,0,0,0,0,0,0,0,0,0,0,0,0,0,0,0,0,0,0,0,0,0,0,0,0,0,0,0,0,0,0,0,0],"sum_hessian":[6.989E3,4.197E3,2.792E3,2.74E3,1.457E3,2.03E3,7.62E2,2.148E3,5.92E2,7.92E2,6.65E2,3.23E2,1.707E3,6.18E2,1.44E2,1.747E3,4.01E2,3.07E2,2.85E2,3.17E2,4.75E2,2.75E2,3.9E2,1.71E2,1.52E2,3.25E2,1.382E3,4.81E2,1.37E2,1.7E1,1.27E2,2.32E2,1.69E2,2.22E2,8.5E1,6.2E1,2.23E2,2.08E2,1.09E2,1.94E2,2.81E2,2.61E2,1.4E1,2.12E2,1.78E2,1.2E2,5.1E1,1.12E2,4E1,2.54E2,7.1E1,6.94E2,6.88E2,3.2E2,1.61E2,5E1,8.7E1,1.2E1,5E0,8.4E1,4.3E1],"tree_param":{"num_deleted":"0","num_feature":"103","num_nodes":"61","size_leaf_vector":"1"}},{"base_weights":[6.046417E-4,-1.210215E0,1.4592392E0,-1.6437455E0,-5.559958E-1,7.63184E-1,2.3655283E0,-8.564053E-2,-1.3835396E0,-1.3973521E0,-1.3145037E-1,1.3252866E0,2.3188892E-1,1.9095385E0,3.0884242E0,-1.163258E0,-8.469137E-2,-1.5247052E0,-7.024569E-1,1.9021453E-1,-6.136239E-1,1.0192658E0,1.8795601E0,-5.301277E-1,6.100559E-1,2.4087923E0,1.289643E0,2.8449297E0,3.8251677E0,-4.3398708E-2,-8.5485585E-2,-7.927046E-2,-5.4044265E-2,1.122065E-3,-5.2277204E-2,-1.349307E-2,3.203552E-2,-6.1464112E-2,-1.6609369E-2,8.7512955E-2,2.5717357E-2,1.1922063E-1,5.5867102E-2,8.246648E-3,-5.20778E-2,6.730944E-2,1.1393226E-2,1.316418E-1,8.0458336E-2,8.394012E-2,2.6417295E-2,1.607146E-1,1.1197509E-1,9.28826E-2,1.9530205E-1],"categories":[],"categories_nodes":[],"categories_segments":[],"categories_sizes":[],"default_left":[0,0,0,0,0,0,0,0,0,0,0,0,0,0,0,0,0,0,0,0,0,0,0,0,0,0,0,0,0,0,0,0,0,0,0,0,0,0,0,0,0,0,0,0,0,0,0,0,0,0,0,0,0,0,0],"id":5,"left_children":[1,3,5,7,9,11,13,-1,15,17,19,21,23,25,27,29,-1,31,33,35,37,39,41,43,45,47,49,51,53,-1,-1,-1,-1,-1,-1,-1,-1,-1,-1,-1,-1,-1,-1,-1,-1,-1,-1,-1,-1,-1,-1,-1,-1,-1,-1],"loss_changes":[1.2347108E4,1.0825298E3,1.9985469E3,3.8910156E1,5.4417993E2,5.3575574E2,4.480078E2,0E0,3.1316406E1,4.415088E1,1.5738641E2,1.4599219E2,2.6659207E2,2.5902734E2,8.437549E1,4.4987396E1,0E0,9.898254E0,2.0168427E1,1.2639563E2,6.993875E1,2.0726776E2,1.16241455E2,1.0930223E2,1.7356363E2,7.96062E1,1.1169403E2,8.292139E1,1.3270508E1,0E0,0E0,0E0,0E0,0E0,0E0,0E0,0E0,0E0,0E0,0E0,0E0,0E0,0E0,0E0,0E0,0E0,0E0,0E0,0E0,0E0,0E0,0E0,0E0,0E0,0E0],"parents":[2147483647,0,0,1,1,2,2,3,3,4,4,5,5,6,6,8,8,9,9,10,10,11,11,12,12,13,13,14,14,15,15,17,17,18,18,19,19,20,20,21,21,22,22,23,23,24,24,25,25,26,26,27,27,28,28],"right_children":[2,4,6,8,10,12,14,-1,16,18,20,22,24,26,28,30,-1,32,34,36,38,40,42,44,46,48,50,52,54,-1,-1,-1,-1,-1,-1,-1,-1,-1,-1,-1,-1,-1,-1,-1,-1,-1,-1,-1,-1,-1,-1,-1,-1,-1,-1],"split_conditions":[4.3064352E-2,-8.138357E-1,9.7417414E-1,-1.015905E0,-7.59178E-1,4.115381E-1,1.5705581E0,-8.564053E-2,-8.3002627E-1,-7.698802E-1,-4.7876805E-1,5.1739895E-1,4.6060127E-1,1.1531174E0,2.183873E0,-7.5211877E-1,-8.469137E-2,-3.611875E-1,-3.3340204E-1,-4.6283755E-1,-3.2040828E-1,2.612369E-1,1.0202342E0,1.7560484E-2,3.3289433E-1,1.645519E0,1.2187701E0,1.7588282E0,-1.4629046E0,-4.3398708E-2,-8.5485585E-2,-7.927046E-2,-5.4044265E-2,1.122065E-3,-5.2277204E-2,-1.349307E-2,3.203552E-2,-6.1464112E-2,-1.6609369E-2,8.7512955E-2,2.5717357E-2,1.1922063E-1,5.5867102E-2,8.246648E-3,-5.20778E-2,6.730944E-2,1.1393226E-2,1.316418E-1,8.0458336E-2,8.394012E-2,2.6417295E-2,1.607146E-1,1.1197509E-1,9.28826E-2,1.9530205E-1],"split_indices":[99,99,99,99,96,4,99,0,4,25,4,99,99,4,99,3,0,75,4,99,99,3,3,3,3,3,3,4,57,0,0,0,0,0,0,0,0,0,0,0,0,0,0,0,0,0,0,0,0,0,0,0,0,0,0],"split_type":[0,0,0,0,0,0,0,0,0,0,0,0,0,0,0,0,0,0,0,0,0,0,0,0,0,0,0,0,0,0,0,0,0,0,0,0,0,0,0,0,0,0,0,0,0,0,0,0,0,0,0,0,0,0,0],"sum_hessian":[6.989E3,3.819E3,3.17E3,2.296E3,1.523E3,1.794E3,1.376E3,1.81E3,4.86E2,5.1E2,1.013E3,8.71E2,9.23E2,8.46E2,5.3E2,2.87E2,1.99E2,4.3E2,8E1,6.08E2,4.05E2,5.63E2,3.08E2,3.06E2,6.17E2,4.67E2,3.79E2,4.02E2,1.28E2,1.88E2,9.9E1,3.76E2,5.4E1,2.6E1,5.4E1,3.01E2,3.07E2,1.26E2,2.79E2,2.29E2,3.34E2,1.84E2,1.24E2,1.3E2,1.76E2,2.1E2,4.07E2,3.63E2,1.04E2,2.5E2,1.29E2,2.47E2,1.55E2,6E0,1.22E2],"tree_param":{"num_deleted":"0","num_feature":"103","num_nodes":"55","size_leaf_vector":"1"}},{"base_weights":[6.693239E-4,-1.0306121E0,1.5507296E0,-1.493794E0,-2.821305E-1,1.053953E0,2.5758445E0,-1.6017537E0,-1.0695395E0,-1.2323307E0,8.5403375E-2,1.3747146E0,3.983133E-1,2.202747E0,3.1930377E0,-8.166028E-2,-1.4373782E0,-6.8361115E-1,-1.5531518E0,7.119208E-1,-1.3153735E0,5.260851E-1,-3.2039866E-1,1.0361015E0,2.0244598E0,-2.4327976E-1,9.205535E-1,2.5070841E0,1.2913359E0,2.9391336E0,3.7135978E0,-6.467376E-2,-8.132885E-2,-1.7062066E-2,-7.19535E-2,-5.9433516E-2,-8.1449226E-2,7.393216E-2,2.0444266E-2,-7.306112E-2,-4.818661E-2,5.000282E-2,1.5544503E-3,-4.363255E-3,-5.2556884E-2,7.533928E-2,2.3687487E-2,1.3429251E-1,8.473814E-2,1.858165E-2,-4.111706E-2,6.6084884E-2,1.3591755E-3,1.7118584E-1,1.1260634E-1,8.4319495E-2,2.5350291E-2,1.7543544E-1,1.1937427E-1,1.8734E-1,4.0239096E-3],"categories":[],"categories_nodes":[],"categories_segments":[],"categories_sizes":[],"default_left":[0,0,0,0,0,0,0,0,0,0,0,0,0,0,0,0,0,0,0,0,0,0,0,0,0,0,0,0,0,0,0,0,0,0,0,0,0,0,0,0,0,0,0,0,0,0,0,0,0,0,0,0,0,0,0,0,0,0,0,0,0],"id":6,"left_children":[1,3,5,7,9,11,13,15,17,19,21,23,25,27,29,-1,31,33,35,37,39,41,43,45,47,49,51,53,55,57,59,-1,-1,-1,-1,-1,-1,-1,-1,-1,-1,-1,-1,-1,-1,-1,-1,-1,-1,-1,-1,-1,-1,-1,-1,-1,-1,-1,-1,-1,-1],"loss_changes":[1.1175452E4,1.4549546E3,1.4196289E3,1.17052246E2,5.609698E2,3.9545508E2,2.0274512E2,8.328125E0,9.7670654E1,7.326892E1,2.0743198E2,2.759978E2,2.0796469E2,1.5514429E2,3.415576E1,0E0,7.153076E0,7.606824E1,4.531372E0,3.8099413E0,2.0644958E1,1.3041425E2,1.028056E2,2.1977313E2,8.9649414E1,9.964977E1,1.2252667E2,9.208008E1,4.407364E1,6.5147095E1,1.2726196E1,0E0,0E0,0E0,0E0,0E0,0E0,0E0,0E0,0E0,0E0,0E0,0E0,0E0,0E0,0E0,0E0,0E0,0E0,0E0,0E0,0E0,0E0,0E0,0E0,0E0,0E0,0E0,0E0,0E0,0E0],"parents":[2147483647,0,0,1,1,2,2,3,3,4,4,5,5,6,6,7,7,8,8,9,9,10,10,11,11,12,12,13,13,14,14,16,16,17,17,18,18,19,19,20,20,21,21,22,22,23,23,24,24,25,25,26,26,27,27,28,28,29,29,30,30],"right_children":[2,4,6,8,10,12,14,16,18,20,22,24,26,28,30,-1,32,34,36,38,40,42,44,46,48,50,52,54,56,58,60,-1,-1,-1,-1,-1,-1,-1,-1,-1,-1,-1,-1,-1,-1,-1,-1,-1,-1,-1,-1,-1,-1,-1,-1,-1,-1,-1,-1,-1,-1],"split_conditions":[2.4316315E-1,-6.412963E-1,1.262473E0,-9.1839033E-1,-7.642655E-1,9.300992E-1,1.7911156E0,-1.0528996E0,-7.897062E-1,-7.6475996E-1,-2.1165892E-1,7.898393E-1,8.350862E-1,1.6820068E0,2.2403305E0,-8.166028E-2,-9.6002114E-1,-5.5738765E-1,-5.0160795E-1,-6.929894E-1,-6.348143E-1,-3.4693193E-1,-3.969048E-4,6.041979E-1,8.865554E-1,3.2045206E-1,1.0202342E0,9.8218894E-1,1.4423001E0,1.7941594E0,5.979371E-1,-6.467376E-2,-8.132885E-2,-1.7062066E-2,-7.19535E-2,-5.9433516E-2,-8.1449226E-2,7.393216E-2,2.0444266E-2,-7.306112E-2,-4.818661E-2,5.000282E-2,1.5544503E-3,-4.363255E-3,-5.2556884E-2,7.533928E-2,2.3687487E-2,1.3429251E-1,8.473814E-2,1.858165E-2,-4.111706E-2,6.6084884E-2,1.3591755E-3,1.7118584E-1,1.1260634E-1,8.4319495E-2,2.5350291E-2,1.7543544E-1,1.1937427E-1,1.8734E-1,4.0239096E-3],"split_indices":[99,99,99,99,97,4,99,99,4,88,3,99,99,4,99,0,4,3,4,68,26,4,4,3,3,3,3,3,3,3,82,0,0,0,0,0,0,0,0,0,0,0,0,0,0,0,0,0,0,0,0,0,0,0,0,0,0,0,0,0,0],"split_type":[0,0,0,0,0,0,0,0,0,0,0,0,0,0,0,0,0,0,0,0,0,0,0,0,0,0,0,0,0,0,0,0,0,0,0,0,0,0,0,0,0,0,0,0,0,0,0,0,0,0,0,0,0,0,0,0,0,0,0,0,0],"sum_hessian":[6.989E3,4.197E3,2.792E3,2.592E3,1.605E3,1.882E3,9.1E2,2.064E3,5.28E2,4.47E2,1.158E3,1.263E3,6.19E2,5.7E2,3.4E2,1.725E3,3.39E2,2.95E2,2.33E2,1.8E1,4.29E2,5.55E2,6.03E2,8.32E2,4.31E2,2.78E2,3.41E2,4.26E2,1.44E2,2.33E2,1.07E2,1.97E2,1.42E2,2.04E2,9.1E1,4.3E1,1.9E2,4E0,1.4E1,3.01E2,1.28E2,2.83E2,2.72E2,4.58E2,1.45E2,4.52E2,3.8E2,1.41E2,2.9E2,1.35E2,1.43E2,2.35E2,1.06E2,9E1,3.36E2,9.5E1,4.9E1,1.12E2,1.21E2,1.06E2,1E0],"tree_param":{"num_deleted":"0","num_feature":"103","num_nodes":"61","size_leaf_vector":"1"}},{"base_weights":[7.435564E-4,-1.0954815E0,1.3213298E0,-1.4714924E0,-4.8734933E-1,7.87526E-1,2.2941194E0,-1.5333527E0,-1.1663783E0,1.3110171E-1,-9.8318696E-1,-7.9619266E-2,1.0442646E0,1.9380088E0,2.977106E0,-7.773936E-2,-1.4081715E0,-9.306891E-1,-1.495848E0,6.751108E-1,-2.6357976E-1,-1.4183382E0,-6.148778E-1,3.933524E-1,-6.749989E-1,1.4049214E0,6.577274E-1,2.405986E0,1.4111792E0,2.7500908E0,3.52969E0,-6.5217875E-2,-7.702925E-2,-3.078149E-2,-7.706488E-2,-7.535183E-2,-3.3297677E-2,3.8172498E-3,6.787408E-2,-3.9123457E-2,3.0215507E-2,-4.8974636E-3,-7.180544E-2,-1.4858867E-2,-5.457726E-2,-4.425355E-3,3.686082E-2,-1.6609358E-2,-7.0376515E-2,5.6216516E-2,9.623732E-2,6.438862E-3,5.391751E-2,1.3508731E-1,8.451297E-2,1.0192454E-1,4.6368327E-2,1.6304441E-1,1.1078321E-1,1.7882004E-1,3.5134267E-2],"categories":[],"categories_nodes":[],"categories_segments":[],"categories_sizes":[],"default_left":[0,0,0,0,0,0,0,0,0,0,0,0,0,0,0,0,0,0,0,0,0,0,0,0,0,0,0,0,0,0,0,0,0,0,0,0,0,0,0,0,0,0,0,0,0,0,0,0,0,0,0,0,0,0,0,0,0,0,0,0,0],"id":7,"left_children":[1,3,5,7,9,11,13,15,17,19,21,23,25,27,29,-1,31,33,35,37,39,41,43,45,47,49,51,53,55,57,59,-1,-1,-1,-1,-1,-1,-1,-1,-1,-1,-1,-1,-1,-1,-1,-1,-1,-1,-1,-1,-1,-1,-1,-1,-1,-1,-1,-1,-1,-1],"loss_changes":[1.012059E4,8.727803E2,1.6448257E3,4.2754883E1,4.481464E2,4.5625122E2,2.6736523E2,3.0673828E0,2.9824158E1,1.3995436E2,1.29107E2,1.3233482E2,2.1947888E2,1.7929395E2,3.8338867E1,0E0,2.0732422E0,4.464467E1,5.3775024E-1,1.11847374E2,1.7070094E2,8.564453E0,6.645953E1,4.347711E1,5.1765457E1,1.170022E2,1.7006485E2,7.820166E1,1.0463855E2,6.811841E1,1.1748535E1,0E0,0E0,0E0,0E0,0E0,0E0,0E0,0E0,0E0,0E0,0E0,0E0,0E0,0E0,0E0,0E0,0E0,0E0,0E0,0E0,0E0,0E0,0E0,0E0,0E0,0E0,0E0,0E0,0E0,0E0],"parents":[2147483647,0,0,1,1,2,2,3,3,4,4,5,5,6,6,7,7,8,8,9,9,10,10,11,11,12,12,13,13,14,14,16,16,17,17,18,18,19,19,20,20,21,21,22,22,23,23,24,24,25,25,26,26,27,27,28,28,29,29,30,30],"right_children":[2,4,6,8,10,12,14,16,18,20,22,24,26,28,30,-1,32,34,36,38,40,42,44,46,48,50,52,54,56,58,60,-1,-1,-1,-1,-1,-1,-1,-1,-1,-1,-1,-1,-1,-1,-1,-1,-1,-1,-1,-1,-1,-1,-1,-1,-1,-1,-1,-1,-1,-1],"split_conditions":[4.3064352E-2,-7.7073455E-1,1.1325623E0,-9.528216E-1,-4.5125315E-1,-6.779374E-1,1.735245E0,-1.0713347E0,-8.3002627E-1,-4.5101303E-1,-7.340505E-1,-4.4431102E-1,4.3323275E-1,1.2556865E0,2.2403305E0,-7.773936E-2,-9.6002114E-1,-6.621436E-1,1.9796174E0,-5.540125E-1,-2.357331E-1,-7.6475996E-1,-2.0195663E-1,4.363705E-1,1.3540555E0,6.074034E-1,6.9899935E-1,1.664814E0,1.0542039E0,1.7941594E0,-1.5573509E-1,-6.5217875E-2,-7.702925E-2,-3.078149E-2,-7.706488E-2,-7.535183E-2,-3.3297677E-2,3.8172498E-3,6.787408E-2,-3.9123457E-2,3.0215507E-2,-4.8974636E-3,-7.180544E-2,-1.4858867E-2,-5.457726E-2,-4.425355E-3,3.686082E-2,-1.6609358E-2,-7.0376515E-2,5.6216516E-2,9.623732E-2,6.438862E-3,5.391751E-2,1.3508731E-1,8.451297E-2,1.0192454E-1,4.6368327E-2,1.6304441E-1,1.1078321E-1,1.7882004E-1,3.5134267E-2],"split_indices":[99,99,99,99,4,24,99,99,4,3,98,16,4,4,99,0,4,3,68,99,99,88,3,99,4,99,99,3,3,3,86,0,0,0,0,0,0,0,0,0,0,0,0,0,0,0,0,0,0,0,0,0,0,0,0,0,0,0,0,0,0],"split_type":[0,0,0,0,0,0,0,0,0,0,0,0,0,0,0,0,0,0,0,0,0,0,0,0,0,0,0,0,0,0,0,0,0,0,0,0,0,0,0,0,0,0,0,0,0,0,0,0,0,0,0,0,0,0,0,0,0,0,0,0,0],"sum_hessian":[6.989E3,3.819E3,3.17E3,2.359E3,1.46E3,2.048E3,1.122E3,1.958E3,4.01E2,6.5E2,8.1E2,4.68E2,1.58E3,7.4E2,3.82E2,1.662E3,2.96E2,2.36E2,1.65E2,2.73E2,3.77E2,3.7E2,4.4E2,2.61E2,2.07E2,8.16E2,7.64E2,3.9E2,3.5E2,2.75E2,1.07E2,1.72E2,1.24E2,1.57E2,7.9E1,1.62E2,3E0,1.46E2,1.27E2,2.36E2,1.41E2,5E0,3.65E2,2.65E2,1.75E2,1.09E2,1.52E2,1.42E2,6.5E1,5.32E2,2.84E2,3.39E2,4.25E2,2.74E2,1.16E2,1.51E2,1.99E2,1.38E2,1.37E2,1.05E2,2E0],"tree_param":{"num_deleted":"0","num_feature":"103","num_nodes":"61","size_leaf_vector":"1"}},{"base_weights":[7.7704474E-4,-1.0612919E0,1.2324749E0,-1.4192888E0,-5.223959E-1,6.365619E-1,2.0369499E0,-7.345034E-2,-1.2137637E0,-1.2275243E0,-1.524785E-1,1.1236907E0,1.5910994E-1,1.552176E0,2.5643055E0,-1.0388957E0,-7.269543E-2,-1.324708E0,-6.813147E-1,2.0005228E-1,-5.298697E-1,7.7797854E-1,1.5342237E0,-4.2291895E-1,5.754637E-1,2.2160168E0,1.1345272E0,2.7556882E0,1.6268681E0,-3.762875E-2,-7.461732E-2,-6.880596E-2,-4.825177E-2,2.6208047E-2,-4.2075202E-2,-2.039713E-2,2.857532E-2,-4.3491416E-2,-9.738278E-3,7.4116774E-2,1.2686065E-2,9.722497E-2,3.9522886E-2,9.757342E-3,-4.2633824E-2,5.5299092E-2,2.9047518E-3,1.2828581E-1,7.3045574E-2,8.1405245E-2,2.6485695E-2,1.2814009E-1,1.6529964E-1,1.0338429E-1,5.7488766E-2],"categories":[],"categories_nodes":[],"categories_segments":[],"categories_sizes":[],"default_left":[0,0,0,0,0,0,0,0,0,0,0,0,0,0,0,0,0,0,0,0,0,0,0,0,0,0,0,0,0,0,0,0,0,0,0,0,0,0,0,0,0,0,0,0,0,0,0,0,0,0,0,0,0,0,0],"id":8,"left_children":[1,3,5,7,9,11,13,-1,15,17,19,21,23,25,27,29,-1,31,33,35,37,39,41,43,45,47,49,51,53,-1,-1,-1,-1,-1,-1,-1,-1,-1,-1,-1,-1,-1,-1,-1,-1,-1,-1,-1,-1,-1,-1,-1,-1,-1,-1],"loss_changes":[9.145264E3,7.234917E2,1.5505117E3,2.1259766E1,3.9107172E2,4.3265393E2,3.4804736E2,0E0,1.7176636E1,2.6488098E1,1.3115237E2,1.2952039E2,2.2827585E2,1.9710767E2,1.1356787E2,3.2763123E1,0E0,6.7527466E0,1.5889431E1,1.1541267E2,5.4057236E1,1.8499454E2,1.2662561E2,1.0455442E2,1.5062167E2,6.939624E1,1.3168152E2,4.9376953E1,2.1598114E1,0E0,0E0,0E0,0E0,0E0,0E0,0E0,0E0,0E0,0E0,0E0,0E0,0E0,0E0,0E0,0E0,0E0,0E0,0E0,0E0,0E0,0E0,0E0,0E0,0E0,0E0],"parents":[2147483647,0,0,1,1,2,2,3,3,4,4,5,5,6,6,8,8,9,9,10,10,11,11,12,12,13,13,14,14,15,15,17,17,18,18,19,19,20,20,21,21,22,22,23,23,24,24,25,25,26,26,27,27,28,28],"right_children":[2,4,6,8,10,12,14,-1,16,18,20,22,24,26,28,30,-1,32,34,36,38,40,42,44,46,48,50,52,54,-1,-1,-1,-1,-1,-1,-1,-1,-1,-1,-1,-1,-1,-1,-1,-1,-1,-1,-1,-1,-1,-1,-1,-1,-1,-1],"split_conditions":[6.978082E-3,-8.417739E-1,9.7417414E-1,-1.015905E0,-7.4350643E-1,4.115381E-1,1.4578329E0,-7.345034E-2,-8.3002627E-1,-7.919392E-1,-4.102015E-1,4.105246E-1,5.324817E-1,8.6748356E-1,-7.269798E-1,-8.816354E-1,-7.269543E-2,4.3656152E-1,-9.6002114E-1,-6.1793E-1,-2.671582E-1,2.0964119E-1,1.0398856E0,2.8982123E-2,5.712784E-1,1.4981979E0,1.0277025E0,2.1222723E0,1.7588282E0,-3.762875E-2,-7.461732E-2,-6.880596E-2,-4.825177E-2,2.6208047E-2,-4.2075202E-2,-2.039713E-2,2.857532E-2,-4.3491416E-2,-9.738278E-3,7.4116774E-2,1.2686065E-2,9.722497E-2,3.9522886E-2,9.757342E-3,-4.2633824E-2,5.5299092E-2,2.9047518E-3,1.2828581E-1,7.3045574E-2,8.1405245E-2,2.6485695E-2,1.2814009E-1,1.6529964E-1,1.0338429E-1,5.7488766E-2],"split_indices":[99,99,99,99,96,4,99,0,4,25,3,99,99,4,87,3,0,77,4,99,99,3,3,3,3,3,3,99,4,0,0,0,0,0,0,0,0,0,0,0,0,0,0,0,0,0,0,0,0,0,0,0,0,0,0],"split_type":[0,0,0,0,0,0,0,0,0,0,0,0,0,0,0,0,0,0,0,0,0,0,0,0,0,0,0,0,0,0,0,0,0,0,0,0,0,0,0,0,0,0,0,0,0,0,0,0,0,0,0,0,0,0,0],"sum_hessian":[6.989E3,3.753E3,3.236E3,2.254E3,1.499E3,1.86E3,1.376E3,1.81E3,4.44E2,5.15E2,9.84E2,9.2E2,9.4E2,7.19E2,6.57E2,2.6E2,1.84E2,4.36E2,7.9E1,5.09E2,4.75E2,5.01E2,4.19E2,3.92E2,5.48E2,2.76E2,4.43E2,5.44E2,1.13E2,1.61E2,9.9E1,3.79E2,5.7E1,9E0,7E1,1.93E2,3.16E2,2.35E2,2.4E2,2.13E2,2.88E2,2.69E2,1.5E2,1.61E2,2.31E2,2.7E2,2.78E2,1.87E2,8.9E1,2.43E2,2E2,4.07E2,1.37E2,5.7E1,5.6E1],"tree_param":{"num_deleted":"0","num_feature":"103","num_nodes":"55","size_leaf_vector":"1"}},{"base_weights":[8.20626E-4,-8.867475E-1,1.3348737E0,-1.2562078E0,-1.9156407E-1,9.5458275E-1,2.3454058E0,-1.365175E0,-8.5919803E-1,3.3116326E-1,-7.754661E-1,2.4643135E-1,1.1808102E0,2.5419393E0,1.4902359E0,-6.9981456E-2,-1.211964E0,-4.0144134E-1,-1.3491626E0,9.124609E-1,-6.0449414E-2,-1.2167871E0,-4.7579932E-1,-1.3838322E-1,8.661245E-1,1.848425E0,1.0067998E0,2.364895E0,3.1418912E0,4.052055E-1,1.6311759E0,-5.3708266E-2,-6.9685005E-2,-5.3330674E-3,-5.8057237E-2,-5.24153E-2,-7.1387775E-2,2.808228E-2,7.960186E-2,-3.6079656E-2,2.0287288E-2,-6.2696934E-2,-1.815047E-2,-3.8143639E-3,-4.665881E-2,7.4546556E-3,-5.5280607E-2,5.9129324E-2,-1.7113043E-2,8.106048E-2,1.3207938E-1,3.1866197E-2,7.03672E-2,1.5106992E-1,1.0657743E-1,1.8555604E-1,1.3881467E-1,2.5181128E-3,5.5324912E-2,9.665364E-2,5.0544675E-2],"categories":[],"categories_nodes":[],"categories_segments":[],"categories_sizes":[],"default_left":[0,0,0,0,0,0,0,0,0,0,0,0,0,0,0,0,0,0,0,0,0,0,0,0,0,0,0,0,0,0,0,0,0,0,0,0,0,0,0,0,0,0,0,0,0,0,0,0,0,0,0,0,0,0,0,0,0,0,0,0,0],"id":9,"left_children":[1,3,5,7,9,11,13,15,17,19,21,23,25,27,29,-1,31,33,35,37,39,41,43,45,47,49,51,53,55,57,59,-1,-1,-1,-1,-1,-1,-1,-1,-1,-1,-1,-1,-1,-1,-1,-1,-1,-1,-1,-1,-1,-1,-1,-1,-1,-1,-1,-1,-1,-1],"loss_changes":[8.277784E3,1.0779849E3,1.0711006E3,1.1740576E2,4.452698E2,3.2508203E2,1.2444873E2,9.647705E0,1.3245917E2,1.7534067E2,9.05408E1,1.1768408E2,1.7692749E2,5.8318604E1,2.1513062E1,0E0,8.57019E0,6.8851326E1,5.265747E0,7.301163E1,1.4238313E2,8.362732E0,7.521257E1,8.497175E1,7.2679855E1,5.28468E1,1.8009668E2,6.739844E1,1.8415894E1,4.4235554E0,2.201532E1,0E0,0E0,0E0,0E0,0E0,0E0,0E0,0E0,0E0,0E0,0E0,0E0,0E0,0E0,0E0,0E0,0E0,0E0,0E0,0E0,0E0,0E0,0E0,0E0,0E0,0E0,0E0,0E0,0E0,0E0],"parents":[2147483647,0,0,1,1,2,2,3,3,4,4,5,5,6,6,7,7,8,8,9,9,10,10,11,11,12,12,13,13,14,14,16,16,17,17,18,18,19,19,20,20,21,21,22,22,23,23,24,24,25,25,26,26,27,27,28,28,29,29,30,30],"right_children":[2,4,6,8,10,12,14,16,18,20,22,24,26,28,30,-1,32,34,36,38,40,42,44,46,48,50,52,54,56,58,60,-1,-1,-1,-1,-1,-1,-1,-1,-1,-1,-1,-1,-1,-1,-1,-1,-1,-1,-1,-1,-1,-1,-1,-1,-1,-1,-1,-1,-1,-1],"split_conditions":[2.4316315E-1,-5.540125E-1,1.3637626E0,-8.8370407E-1,-7.8391336E-2,-9.214785E-1,-7.269798E-1,-1.0456485E0,-8.2224745E-1,-2.1165892E-1,-7.64609E-1,8.5444367E-1,9.040755E-3,2.1222723E0,-7.64609E-1,-6.9981456E-2,-8.719552E-1,-4.695969E-1,-5.0160795E-1,-2.357331E-1,-1.8714601E-1,6.1757517E-1,-1.9298205E-1,1.274764E0,1.6646712E0,8.01892E-1,8.5444367E-1,1.0302726E0,1.8181736E0,7.9897165E-1,1.9583689E0,-5.3708266E-2,-6.9685005E-2,-5.3330674E-3,-5.8057237E-2,-5.24153E-2,-7.1387775E-2,2.808228E-2,7.960186E-2,-3.6079656E-2,2.0287288E-2,-6.2696934E-2,-1.815047E-2,-3.8143639E-3,-4.665881E-2,7.4546556E-3,-5.5280607E-2,5.9129324E-2,-1.7113043E-2,8.106048E-2,1.3207938E-1,3.1866197E-2,7.03672E-2,1.5106992E-1,1.0657743E-1,1.8555604E-1,1.3881467E-1,2.5181128E-3,5.5324912E-2,9.665364E-2,5.0544675E-2],"split_indices":[99,99,99,99,4,23,87,99,4,3,2,99,4,99,79,0,4,3,4,99,99,26,3,4,4,99,99,4,4,57,4,0,0,0,0,0,0,0,0,0,0,0,0,0,0,0,0,0,0,0,0,0,0,0,0,0,0,0,0,0,0],"split_type":[0,0,0,0,0,0,0,0,0,0,0,0,0,0,0,0,0,0,0,0,0,0,0,0,0,0,0,0,0,0,0,0,0,0,0,0,0,0,0,0,0,0,0,0,0,0,0,0,0,0,0,0,0,0,0,0,0,0,0,0,0],"sum_hessian":[6.989E3,4.197E3,2.792E3,2.74E3,1.457E3,2.03E3,7.62E2,2.148E3,5.92E2,7.69E2,6.88E2,4.92E2,1.538E3,6.18E2,1.44E2,1.747E3,4.01E2,3.07E2,2.85E2,3.09E2,4.6E2,2.77E2,4.11E2,3.04E2,1.88E2,3.16E2,1.222E3,4.81E2,1.37E2,1.7E1,1.27E2,2.32E2,1.69E2,2.22E2,8.5E1,6.2E1,2.23E2,2.05E2,1.04E2,1.9E2,2.7E2,2.65E2,1.2E1,2.2E2,1.91E2,2.35E2,6.9E1,1.49E2,3.9E1,2.48E2,6.8E1,6.37E2,5.85E2,1.23E2,3.58E2,5E1,8.7E1,1.2E1,5E0,8.4E1,4.3E1],"tree_param":{"num_deleted":"0","num_feature":"103","num_nodes":"61","size_leaf_vector":"1"}},{"base_weights":[8.764063E-4,-9.2573106E-1,1.1571988E0,-1.2440271E0,-3.7013936E-1,7.5314695E-1,2.1006234E0,-1.3081583E0,-9.336988E-1,2.5067568E-1,-8.067298E-1,-1.513489E-1,9.4428635E-1,1.8245703E0,2.6818085E0,-6.6687435E-2,-1.192724E0,-6.596526E-1,-1.2771208E0,8.1322E-1,-1.2935619E-1,-1.212098E0,-5.107016E-1,-5.8556E-1,3.7409315E-1,1.5019716E0,7.587928E-1,2.0868528E0,1.089005E0,3.0246792E0,2.2396035E0,-5.4586913E-2,-6.646042E-2,-1.9939935E-2,-6.2368214E-2,-5.1893312E-2,-6.694194E-2,2.3957035E-2,7.993103E-2,-3.2249205E-2,3.0204156E-2,1.0584891E-2,-6.166732E-2,-1.0294993E-2,-4.6252966E-2,-9.328495E-3,-5.2663065E-2,8.3039915E-3,5.6709703E-2,5.187849E-2,9.295278E-2,1.0124119E-2,5.2654054E-2,1.4631706E-1,9.323005E-2,7.2112136E-2,1.3324233E-2,1.952719E-1,1.4197525E-1,8.452451E-2,1.3982503E-1],"categories":[],"categories_nodes":[],"categories_segments":[],"categories_sizes":[],"default_left":[0,0,0,0,0,0,0,0,0,0,0,0,0,0,0,0,0,0,0,0,0,0,0,0,0,0,0,0,0,0,0,0,0,0,0,0,0,0,0,0,0,0,0,0,0,0,0,0,0,0,0,0,0,0,0,0,0,0,0,0,0],"id":10,"left_children":[1,3,5,7,9,11,13,15,17,19,21,23,25,27,29,-1,31,33,35,37,39,41,43,45,47,49,51,53,55,57,59,-1,-1,-1,-1,-1,-1,-1,-1,-1,-1,-1,-1,-1,-1,-1,-1,-1,-1,-1,-1,-1,-1,-1,-1,-1,-1,-1,-1,-1,-1],"loss_changes":[7.490555E3,6.8586597E2,1.1839263E3,4.7875977E1,3.837265E2,3.768589E2,1.4463477E2,4.441162E0,3.924994E1,1.2516929E2,9.910138E1,8.714526E1,1.8496155E2,1.2023535E2,3.8408447E1,0E0,3.786438E0,3.6142906E1,1.3865051E0,6.115715E1,1.3275325E2,1.08497925E1,6.068466E1,3.8804596E1,2.7164852E1,7.23631E1,2.2113031E2,8.167554E1,4.8717834E1,1.5820801E1,3.6249634E1,0E0,0E0,0E0,0E0,0E0,0E0,0E0,0E0,0E0,0E0,0E0,0E0,0E0,0E0,0E0,0E0,0E0,0E0,0E0,0E0,0E0,0E0,0E0,0E0,0E0,0E0,0E0,0E0,0E0,0E0],"parents":[2147483647,0,0,1,1,2,2,3,3,4,4,5,5,6,6,7,7,8,8,9,9,10,10,11,11,12,12,13,13,14,14,16,16,17,17,18,18,19,19,20,20,21,21,22,22,23,23,24,24,25,25,26,26,27,27,28,28,29,29,30,30],"right_children":[2,4,6,8,10,12,14,16,18,20,22,24,26,28,30,-1,32,34,36,38,40,42,44,46,48,50,52,54,56,58,60,-1,-1,-1,-1,-1,-1,-1,-1,-1,-1,-1,-1,-1,-1,-1,-1,-1,-1,-1,-1,-1,-1,-1,-1,-1,-1,-1,-1,-1,-1],"split_conditions":[7.655391E-2,-7.1208745E-1,1.2471421E0,-9.285665E-1,-4.711986E-1,-5.581575E-1,1.8737795E0,-1.0713347E0,-7.897062E-1,-4.102015E-1,-7.340505E-1,-5.6615216E-1,9.040755E-3,1.6820068E0,1.9174682E0,-6.6687435E-2,-9.6002114E-1,-6.340553E-1,-5.0160795E-1,-3.9801297E-1,-2.357331E-1,-7.6475996E-1,-2.0195663E-1,1.16638E0,6.9899935E-1,3.478438E-1,6.074034E-1,9.8218894E-1,1.4871894E0,1.548691E0,2.2403305E0,-5.4586913E-2,-6.646042E-2,-1.9939935E-2,-6.2368214E-2,-5.1893312E-2,-6.694194E-2,2.3957035E-2,7.993103E-2,-3.2249205E-2,3.0204156E-2,1.0584891E-2,-6.166732E-2,-1.0294993E-2,-4.6252966E-2,-9.328495E-3,-5.2663065E-2,8.3039915E-3,5.6709703E-2,5.187849E-2,9.295278E-2,1.0124119E-2,5.2654054E-2,1.4631706E-1,9.323005E-2,7.2112136E-2,1.3324233E-2,1.952719E-1,1.4197525E-1,8.452451E-2,1.3982503E-1],"split_indices":[99,99,99,99,4,25,99,99,4,3,98,75,4,4,4,0,4,3,4,99,99,88,3,4,99,99,99,3,3,3,99,0,0,0,0,0,0,0,0,0,0,0,0,0,0,0,0,0,0,0,0,0,0,0,0,0,0,0,0,0,0],"split_type":[0,0,0,0,0,0,0,0,0,0,0,0,0,0,0,0,0,0,0,0,0,0,0,0,0,0,0,0,0,0,0,0,0,0,0,0,0,0,0,0,0,0,0,0,0,0,0,0,0,0,0,0,0,0,0,0,0,0,0,0,0],"sum_hessian":[6.989E3,3.88E3,3.109E3,2.466E3,1.414E3,2.178E3,9.31E2,2.041E3,4.25E2,5.84E2,8.3E2,3.8E2,1.798E3,6.34E2,2.97E2,1.662E3,3.79E2,2.38E2,1.87E2,2.35E2,3.49E2,3.49E2,4.81E2,2.08E2,1.72E2,4.47E2,1.351E3,4.66E2,1.68E2,1.64E2,1.33E2,2.23E2,1.56E2,1.66E2,7.2E1,4.2E1,1.45E2,1.66E2,6.9E1,2.05E2,1.44E2,5E0,3.44E2,2.78E2,2.03E2,1.13E2,9.5E1,1.36E2,3.6E1,1.96E2,2.51E2,4.68E2,8.83E2,9.5E1,3.71E2,1.17E2,5.1E1,2.5E1,1.39E2,6.9E1,6.4E1],"tree_param":{"num_deleted":"0","num_feature":"103","num_nodes":"61","size_leaf_vector":"1"}},{"base_weights":[9.330665E-4,-9.128484E-1,1.0606596E0,-1.2076349E0,-4.3616128E-1,5.862799E-1,1.8152478E0,-1.2573446E0,-1.007807E0,1.7405206E-1,-8.030275E-1,1.1147758E0,2.722673E-1,1.4715879E0,2.3463516E0,-6.339731E-2,-1.1697642E0,-8.3770543E-1,-1.2470791E0,-2.61663E-1,5.2349627E-1,-1.1645405E0,-4.9901563E-1,1.7530508E0,9.083625E-1,-4.1021496E-1,5.907599E-1,2.3547862E0,1.2269121E0,2.712983E0,2.0364192E0,-6.1311483E-2,-5.270539E-2,-2.7839163E-2,-6.3477E-2,-6.252595E-2,-1.47520425E-2,1.4367053E-2,-4.3283954E-2,4.3655433E-2,-1.7831083E-2,-5.961897E-2,3.2733323E-3,-4.8104987E-2,-1.3118798E-2,7.624236E-2,1.2447627E-1,1.7085912E-2,6.923548E-2,1.34592075E-2,-4.155503E-2,4.373249E-2,-7.480339E-3,1.5683271E-1,9.870749E-2,7.577106E-2,2.238338E-2,1.8465495E-1,1.2787692E-1,7.974185E-2,1.2587996E-1],"categories":[],"categories_nodes":[],"categories_segments":[],"categories_sizes":[],"default_left":[0,0,0,0,0,0,0,0,0,0,0,0,0,0,0,0,0,0,0,0,0,0,0,0,0,0,0,0,0,0,0,0,0,0,0,0,0,0,0,0,0,0,0,0,0,0,0,0,0,0,0,0,0,0,0,0,0,0,0,0,0],"id":11,"left_children":[1,3,5,7,9,11,13,15,17,19,21,23,25,27,29,-1,31,33,35,37,39,41,43,45,47,49,51,53,55,57,59,-1,-1,-1,-1,-1,-1,-1,-1,-1,-1,-1,-1,-1,-1,-1,-1,-1,-1,-1,-1,-1,-1,-1,-1,-1,-1,-1,-1,-1,-1],"loss_changes":[6.769795E3,5.26989E2,1.157656E3,2.176831E1,3.2161234E2,3.2977972E2,2.2451416E2,2.3730469E-1,1.7962524E1,8.235635E1,9.800299E1,9.6033264E1,2.7173187E2,1.6156104E2,5.004077E1,0E0,9.844971E-2,3.2775238E1,2.5979614E-1,8.01661E1,9.26214E1,1.4083008E1,5.3334167E1,2.645581E1,1.5122147E2,1.1403153E2,1.7920645E2,4.2615356E1,1.3376343E2,2.4224854E1,5.314209E1,0E0,0E0,0E0,0E0,0E0,0E0,0E0,0E0,0E0,0E0,0E0,0E0,0E0,0E0,0E0,0E0,0E0,0E0,0E0,0E0,0E0,0E0,0E0,0E0,0E0,0E0,0E0,0E0,0E0,0E0],"parents":[2147483647,0,0,1,1,2,2,3,3,4,4,5,5,6,6,7,7,8,8,9,9,10,10,11,11,12,12,13,13,14,14,16,16,17,17,18,18,19,19,20,20,21,21,22,22,23,23,24,24,25,25,26,26,27,27,28,28,29,29,30,30],"right_children":[2,4,6,8,10,12,14,16,18,20,22,24,26,28,30,-1,32,34,36,38,40,42,44,46,48,50,52,54,56,58,60,-1,-1,-1,-1,-1,-1,-1,-1,-1,-1,-1,-1,-1,-1,-1,-1,-1,-1,-1,-1,-1,-1,-1,-1,-1,-1,-1,-1,-1,-1],"split_conditions":[6.978082E-3,-8.038325E-1,1.0539162E0,-9.903988E-1,-6.343038E-1,2.0943144E-1,1.6147178E0,-1.079322E0,-8.3002627E-1,-5.236847E-1,-6.955492E-1,1.5628237E-1,4.4735146E-1,6.3805073E-1,1.6453753E0,-6.339731E-2,-7.2617996E-1,-8.580815E-1,2.2193663E0,-6.621436E-1,1.6640069E-1,8.4434086E-1,-3.2040828E-1,3.4248313E-1,4.0000197E-1,-1.935595E-2,1.1917584E0,1.2104251E0,1.4981979E0,1.2438384E0,2.0817177E0,-6.1311483E-2,-5.270539E-2,-2.7839163E-2,-6.3477E-2,-6.252595E-2,-1.47520425E-2,1.4367053E-2,-4.3283954E-2,4.3655433E-2,-1.7831083E-2,-5.961897E-2,3.2733323E-3,-4.8104987E-2,-1.3118798E-2,7.624236E-2,1.2447627E-1,1.7085912E-2,6.923548E-2,1.34592075E-2,-4.155503E-2,4.373249E-2,-7.480339E-3,1.5683271E-1,9.870749E-2,7.577106E-2,2.238338E-2,1.8465495E-1,1.2787692E-1,7.974185E-2,1.2587996E-1],"split_indices":[99,99,99,99,4,4,99,99,4,99,2,3,99,4,4,0,97,3,51,3,3,26,99,99,99,3,4,3,3,3,99,0,0,0,0,0,0,0,0,0,0,0,0,0,0,0,0,0,0,0,0,0,0,0,0,0,0,0,0,0,0],"split_type":[0,0,0,0,0,0,0,0,0,0,0,0,0,0,0,0,0,0,0,0,0,0,0,0,0,0,0,0,0,0,0,0,0,0,0,0,0,0,0,0,0,0,0,0,0,0,0,0,0,0,0,0,0,0,0,0,0,0,0,0,0],"sum_hessian":[6.989E3,3.753E3,3.236E3,2.318E3,1.435E3,1.988E3,1.248E3,1.852E3,4.66E2,5.39E2,8.96E2,7.4E2,1.248E3,7.6E2,4.88E2,1.64E3,2.12E2,2.75E2,1.91E2,2.4E2,2.99E2,4.08E2,4.88E2,1.79E2,5.61E2,3.97E2,8.51E2,1.63E2,5.97E2,2.2E2,2.68E2,1.36E2,7.6E1,1.68E2,1.07E2,1.9E2,1E0,1.26E2,1.14E2,2.14E2,8.5E1,3.99E2,9E0,1.64E2,3.24E2,1.39E2,4E1,2.57E2,3.04E2,1.52E2,2.45E2,6.15E2,2.36E2,5.1E1,1.12E2,4.35E2,1.62E2,2.7E1,1.93E2,1.42E2,1.26E2],"tree_param":{"num_deleted":"0","num_feature":"103","num_nodes":"61","size_leaf_vector":"1"}},{"base_weights":[9.865615E-4,-7.6257074E-1,1.1486459E0,-1.0796313E0,-1.6598238E-1,8.1825286E-1,2.0266008E0,-1.1714135E0,-7.4519724E-1,4.6109313E-1,-5.530279E-1,1.1118104E0,3.4205878E-1,2.2043722E0,1.2537246E0,-5.9970684E-2,-1.038333E0,-3.4460324E-1,-1.1740005E0,8.83111E-1,2.7114954E-3,-1.0125479E0,-2.998557E-1,8.01589E-1,1.6675947E0,-1.6269799E-1,7.838091E-1,2.0910559E0,2.941702E0,2.8030893E-1,1.3808163E0,-4.3164317E-2,-5.7664216E-2,1.045763E-3,-4.0969394E-2,-5.260953E-2,-6.69254E-2,2.3045149E-2,7.701835E-2,-4.1225925E-2,1.9906536E-2,1.6291725E-2,-5.1957984E-2,3.9464394E-3,-3.4406044E-2,6.296356E-2,1.3089033E-2,1.2247989E-1,6.907068E-2,1.9959617E-2,-3.2984782E-2,5.7988107E-2,1.5836742E-3,1.492982E-1,9.843665E-2,1.5119636E-1,3.1171871E-2,-2.051436E-3,4.649112E-2,8.300211E-2,4.0501032E-2],"categories":[],"categories_nodes":[],"categories_segments":[],"categories_sizes":[],"default_left":[0,0,0,0,0,0,0,0,0,0,0,0,0,0,0,0,0,0,0,0,0,0,0,0,0,0,0,0,0,0,0,0,0,0,0,0,0,0,0,0,0,0,0,0,0,0,0,0,0,0,0,0,0,0,0,0,0,0,0,0,0],"id":12,"left_children":[1,3,5,7,9,11,13,15,17,19,21,23,25,27,29,-1,31,33,35,37,39,41,43,45,47,49,51,53,55,57,59,-1,-1,-1,-1,-1,-1,-1,-1,-1,-1,-1,-1,-1,-1,-1,-1,-1,-1,-1,-1,-1,-1,-1,-1,-1,-1,-1,-1,-1,-1],"loss_changes":[6.1262383E3,7.938921E2,8.0850806E2,8.326245E1,3.5412146E2,2.8353394E2,1.0206885E2,6.762451E0,1.0145862E2,1.0774661E2,1.04632996E2,2.1521826E2,1.7315726E2,4.556714E1,1.7551361E1,0E0,6.6707764E0,5.346824E1,4.322693E0,7.976466E1,8.7991776E1,1.1735962E1,8.5795425E1,1.9929535E2,9.709973E1,1.01634056E2,1.1702908E2,5.3233887E1,1.336438E1,3.7949853E0,1.9056091E1,0E0,0E0,0E0,0E0,0E0,0E0,0E0,0E0,0E0,0E0,0E0,0E0,0E0,0E0,0E0,0E0,0E0,0E0,0E0,0E0,0E0,0E0,0E0,0E0,0E0,0E0,0E0,0E0,0E0,0E0],"parents":[2147483647,0,0,1,1,2,2,3,3,4,4,5,5,6,6,7,7,8,8,9,9,10,10,11,11,12,12,13,13,14,14,16,16,17,17,18,18,19,19,20,20,21,21,22,22,23,23,24,24,25,25,26,26,27,27,28,28,29,29,30,30],"right_children":[2,4,6,8,10,12,14,16,18,20,22,24,26,28,30,-1,32,34,36,38,40,42,44,46,48,50,52,54,56,58,60,-1,-1,-1,-1,-1,-1,-1,-1,-1,-1,-1,-1,-1,-1,-1,-1,-1,-1,-1,-1,-1,-1,-1,-1,-1,-1,-1,-1,-1,-1],"split_conditions":[2.4316315E-1,-5.540125E-1,1.3637626E0,-8.8370407E-1,-3.6707416E-1,8.8637674E-1,-7.269798E-1,-1.0378153E0,-8.2224745E-1,-5.062629E-2,-7.340505E-1,7.898393E-1,9.094756E-1,2.305659E0,-7.64609E-1,-5.9970684E-2,-9.6089727E-1,-7.894505E-1,-9.021065E-1,-2.84811E-1,-2.4704136E-1,-7.6475996E-1,-2.0195663E-1,6.041979E-1,8.161692E-1,3.2045206E-1,1.1284244E0,7.2674865E-1,-5.866389E-1,7.9897165E-1,1.9583689E0,-4.3164317E-2,-5.7664216E-2,1.045763E-3,-4.0969394E-2,-5.260953E-2,-6.69254E-2,2.3045149E-2,7.701835E-2,-4.1225925E-2,1.9906536E-2,1.6291725E-2,-5.1957984E-2,3.9464394E-3,-3.4406044E-2,6.296356E-2,1.3089033E-2,1.2247989E-1,6.907068E-2,1.9959617E-2,-3.2984782E-2,5.7988107E-2,1.5836742E-3,1.492982E-1,9.843665E-2,1.5119636E-1,3.1171871E-2,-2.051436E-3,4.649112E-2,8.300211E-2,4.0501032E-2],"split_indices":[99,99,99,99,4,4,87,99,4,3,98,99,99,99,79,0,8,3,3,99,99,88,3,3,3,3,3,4,45,57,4,0,0,0,0,0,0,0,0,0,0,0,0,0,0,0,0,0,0,0,0,0,0,0,0,0,0,0,0,0,0],"split_type":[0,0,0,0,0,0,0,0,0,0,0,0,0,0,0,0,0,0,0,0,0,0,0,0,0,0,0,0,0,0,0,0,0,0,0,0,0,0,0,0,0,0,0,0,0,0,0,0,0,0,0,0,0,0,0,0,0,0,0,0,0],"sum_hessian":[6.989E3,4.197E3,2.792E3,2.74E3,1.457E3,2.03E3,7.62E2,2.148E3,5.92E2,5.56E2,9.01E2,1.255E3,7.75E2,6.18E2,1.44E2,1.768E3,3.8E2,3.07E2,2.85E2,2.89E2,2.67E2,3.19E2,5.82E2,8.07E2,4.48E2,3.62E2,4.13E2,5.39E2,7.9E1,1.7E1,1.27E2,1.54E2,2.26E2,1.74E2,1.33E2,1.68E2,1.17E2,1.77E2,1.12E2,8.6E1,1.81E2,6E0,3.13E2,2.95E2,2.87E2,4.36E2,3.71E2,1.18E2,3.3E2,1.7E2,1.92E2,2.75E2,1.38E2,6.2E1,4.77E2,7.6E1,3E0,1.2E1,5E0,8.4E1,4.3E1],"tree_param":{"num_deleted":"0","num_feature":"103","num_nodes":"61","size_leaf_vector":"1"}},{"base_weights":[1.0238016E-3,-8.261994E-1,9.603673E-1,-1.0910417E0,-3.9792958E-1,5.643859E-1,1.705283E0,-1.1349895E0,-9.1432583E-1,1.2541102E-2,-8.6331093E-1,-1.3322124E-1,7.7370703E-1,1.4334236E0,2.226804E0,-5.7260603E-2,-1.0589993E0,-7.591103E-1,-1.1269388E0,5.699838E-1,-2.6293847E-1,-1.1452821E0,-6.19354E-1,2.4071176E-1,-6.10888E-1,1.1265917E0,5.100108E-1,1.7945067E0,9.025958E-1,2.6256626E0,1.941132E0,-5.0603773E-2,-5.901155E-2,-2.5038976E-2,-5.806894E-2,-5.6502666E-2,-1.3068008E-2,1.8811919E-3,5.617532E-2,-4.0034123E-2,9.0985475E-3,-4.762197E-2,-6.079645E-2,-1.1247068E-2,-5.0518185E-2,-1.7351238E-2,2.2543976E-2,-4.1028872E-2,1.2347648E-2,7.7357315E-2,4.3111097E-2,-1.0539862E-2,3.6047723E-2,1.03084564E-1,5.6719102E-2,7.919749E-2,2.6030093E-2,1.405985E-1,9.3448125E-2,7.923325E-2,1.307484E-1],"categories":[],"categories_nodes":[],"categories_segments":[],"categories_sizes":[],"default_left":[0,0,0,0,0,0,0,0,0,0,0,0,0,0,0,0,0,0,0,0,0,0,0,0,0,0,0,0,0,0,0,0,0,0,0,0,0,0,0,0,0,0,0,0,0,0,0,0,0,0,0,0,0,0,0,0,0,0,0,0,0],"id":13,"left_children":[1,3,5,7,9,11,13,15,17,19,21,23,25,27,29,-1,31,33,35,37,39,41,43,45,47,49,51,53,55,57,59,-1,-1,-1,-1,-1,-1,-1,-1,-1,-1,-1,-1,-1,-1,-1,-1,-1,-1,-1,-1,-1,-1,-1,-1,-1,-1,-1,-1,-1,-1],"loss_changes":[5.5479966E3,4.2535962E2,9.538645E2,1.6971924E1,2.743233E2,3.0894366E2,1.560271E2,2.2680664E-1,1.4555908E1,1.1747282E2,4.558557E1,8.748996E1,1.5082477E2,1.4041003E2,3.8543335E1,0E0,1.3098145E-1,2.7788116E1,2.3034668E-1,7.4510056E1,1.2264034E2,3.0788574E0,5.5754272E1,3.4125366E1,3.8876892E1,7.59375E1,1.420145E2,7.5266235E1,7.777786E1,1.6878296E1,5.038159E1,0E0,0E0,0E0,0E0,0E0,0E0,0E0,0E0,0E0,0E0,0E0,0E0,0E0,0E0,0E0,0E0,0E0,0E0,0E0,0E0,0E0,0E0,0E0,0E0,0E0,0E0,0E0,0E0,0E0,0E0],"parents":[2147483647,0,0,1,1,2,2,3,3,4,4,5,5,6,6,7,7,8,8,9,9,10,10,11,11,12,12,13,13,14,14,16,16,17,17,18,18,19,19,20,20,21,21,22,22,23,23,24,24,25,25,26,26,27,27,28,28,29,29,30,30],"right_children":[2,4,6,8,10,12,14,16,18,20,22,24,26,28,30,-1,32,34,36,38,40,42,44,46,48,50,52,54,56,58,60,-1,-1,-1,-1,-1,-1,-1,-1,-1,-1,-1,-1,-1,-1,-1,-1,-1,-1,-1,-1,-1,-1,-1,-1,-1,-1,-1,-1,-1,-1],"split_conditions":[6.978082E-3,-8.038325E-1,1.1325623E0,-9.903988E-1,-2.979326E-1,-6.779374E-1,1.735245E0,-1.0889674E0,-8.442367E-1,-6.340553E-1,-3.2040828E-1,-4.4431102E-1,2.6102954E-1,1.3725307E0,1.7941594E0,-5.7260603E-2,-9.597576E-1,-8.580815E-1,2.2193663E0,-5.9958285E-1,-4.1605672E-1,-5.176755E-2,-2.5892222E-1,2.1967551E-1,1.2271639E-1,4.4174975E-1,4.2642054E-1,1.664814E0,9.4222623E-1,2.4214494E0,2.305659E0,-5.0603773E-2,-5.901155E-2,-2.5038976E-2,-5.806894E-2,-5.6502666E-2,-1.3068008E-2,1.8811919E-3,5.617532E-2,-4.0034123E-2,9.0985475E-3,-4.762197E-2,-6.079645E-2,-1.1247068E-2,-5.0518185E-2,-1.7351238E-2,2.2543976E-2,-4.1028872E-2,1.2347648E-2,7.7357315E-2,4.3111097E-2,-1.0539862E-2,3.6047723E-2,1.03084564E-1,5.6719102E-2,7.919749E-2,2.6030093E-2,1.405985E-1,9.3448125E-2,7.923325E-2,1.307484E-1],"split_indices":[99,99,99,99,4,24,99,99,4,3,99,16,4,4,3,0,3,3,51,99,99,4,3,99,50,3,99,3,3,4,99,0,0,0,0,0,0,0,0,0,0,0,0,0,0,0,0,0,0,0,0,0,0,0,0,0,0,0,0,0,0],"split_type":[0,0,0,0,0,0,0,0,0,0,0,0,0,0,0,0,0,0,0,0,0,0,0,0,0,0,0,0,0,0,0,0,0,0,0,0,0,0,0,0,0,0,0,0,0,0,0,0,0,0,0,0,0,0,0,0,0,0,0,0,0],"sum_hessian":[6.989E3,3.753E3,3.236E3,2.318E3,1.435E3,2.114E3,1.122E3,1.852E3,4.66E2,7.63E2,6.72E2,4.88E2,1.626E3,7.4E2,3.82E2,1.62E3,2.32E2,2.72E2,1.94E2,2.52E2,5.11E2,3.1E2,3.62E2,2.74E2,2.14E2,6.94E2,9.32E2,4.39E2,3.01E2,1.56E2,2.26E2,1.74E2,5.8E1,1.67E2,1.05E2,1.93E2,1E0,1.29E2,1.23E2,2.31E2,2.8E2,8.7E1,2.23E2,1.81E2,1.81E2,7.2E1,2.02E2,1.72E2,4.2E1,2.66E2,4.28E2,2.11E2,7.21E2,3.11E2,1.28E2,1.07E2,1.94E2,1.23E2,3.3E1,1.5E2,7.6E1],"tree_param":{"num_deleted":"0","num_feature":"103","num_nodes":"61","size_leaf_vector":"1"}},{"base_weights":[1.0253632E-3,-7.483422E-1,9.592287E-1,-1.0098888E0,-2.8456587E-1,6.2890404E-1,1.7406572E0,-1.066585E0,-7.598173E-1,3.5834607E-1,-5.863859E-1,3.6523405E-2,8.502223E-1,1.5080945E0,2.2139888E0,-5.433737E-2,-9.7554076E-1,-5.0601834E-1,-1.0424643E0,6.5222687E-1,-2.6407596E-1,-9.734851E-1,-3.228119E-1,2.5849345E-1,-6.560302E-1,1.5350143E0,7.157418E-1,1.9994748E0,1.1719356E0,2.537031E0,1.7996908E0,-4.5605645E-2,-5.7318013E-2,-1.4965611E-2,-5.416854E-2,-4.24002E-2,-5.518473E-2,1.6369428E-2,6.998384E-2,-5.089305E-2,1.1506093E-2,1.2219514E-2,-4.9657542E-2,-3.6204208E-4,-3.371611E-2,-1.9527003E-3,4.99009E-2,-5.458209E-2,-7.280525E-3,6.6426896E-2,1.1345954E-1,1.8198213E-2,5.074917E-2,1.4000392E-1,8.438244E-2,7.3840246E-2,2.775738E-2,1.67833E-1,1.1833463E-1,7.4829005E-2,1.3071509E-1],"categories":[],"categories_nodes":[],"categories_segments":[],"categories_sizes":[],"default_left":[0,0,0,0,0,0,0,0,0,0,0,0,0,0,0,0,0,0,0,0,0,0,0,0,0,0,0,0,0,0,0,0,0,0,0,0,0,0,0,0,0,0,0,0,0,0,0,0,0,0,0,0,0,0,0,0,0,0,0,0,0],"id":14,"left_children":[1,3,5,7,9,11,13,15,17,19,21,23,25,27,29,-1,31,33,35,37,39,41,43,45,47,49,51,53,55,57,59,-1,-1,-1,-1,-1,-1,-1,-1,-1,-1,-1,-1,-1,-1,-1,-1,-1,-1,-1,-1,-1,-1,-1,-1,-1,-1,-1,-1,-1,-1],"loss_changes":[5.019863E3,4.755691E2,7.908335E2,3.4748535E1,2.7497604E2,2.8289282E2,9.6943115E1,2.6882324E0,3.297296E1,8.303404E1,9.804199E1,9.0560555E1,1.4357654E2,9.907837E1,3.531714E1,0E0,3.0715637E0,2.9272625E1,1.6835632E0,7.432428E1,5.4621994E1,9.5833435E0,6.3777832E1,9.817845E1,3.1636333E1,3.594397E1,1.3805597E2,5.718744E1,6.8190735E1,1.5092163E1,2.9174408E1,0E0,0E0,0E0,0E0,0E0,0E0,0E0,0E0,0E0,0E0,0E0,0E0,0E0,0E0,0E0,0E0,0E0,0E0,0E0,0E0,0E0,0E0,0E0,0E0,0E0,0E0,0E0,0E0,0E0,0E0],"parents":[2147483647,0,0,1,1,2,2,3,3,4,4,5,5,6,6,7,7,8,8,9,9,10,10,11,11,12,12,13,13,14,14,16,16,17,17,18,18,19,19,20,20,21,21,22,22,23,23,24,24,25,25,26,26,27,27,28,28,29,29,30,30],"right_children":[2,4,6,8,10,12,14,16,18,20,22,24,26,28,30,-1,32,34,36,38,40,42,44,46,48,50,52,54,56,58,60,-1,-1,-1,-1,-1,-1,-1,-1,-1,-1,-1,-1,-1,-1,-1,-1,-1,-1,-1,-1,-1,-1,-1,-1,-1,-1,-1,-1,-1,-1],"split_conditions":[9.5815495E-2,-6.960913E-1,1.262473E0,-9.285665E-1,-6.6239345E-1,-8.0639875E-1,1.8737795E0,-1.0713347E0,-8.442367E-1,9.259709E-3,-7.642655E-1,1.2913408E0,-2.3971874E-1,1.2025561E0,1.9174682E0,-5.433737E-2,-9.021065E-1,-5.0136554E-1,-5.0160795E-1,-3.565539E-1,-2.84811E-1,-7.6475996E-1,-2.3948835E-1,7.613902E-1,8.350862E-1,6.5832806E-1,6.9899935E-1,1.2438384E0,1.5095536E0,1.548691E0,2.5163336E0,-4.5605645E-2,-5.7318013E-2,-1.4965611E-2,-5.416854E-2,-4.24002E-2,-5.518473E-2,1.6369428E-2,6.998384E-2,-5.089305E-2,1.1506093E-2,1.2219514E-2,-4.9657542E-2,-3.6204208E-4,-3.371611E-2,-1.9527003E-3,4.99009E-2,-5.458209E-2,-7.280525E-3,6.6426896E-2,1.1345954E-1,1.8198213E-2,5.074917E-2,1.4000392E-1,8.438244E-2,7.3840246E-2,2.775738E-2,1.67833E-1,1.1833463E-1,7.4829005E-2,1.3071509E-1],"split_indices":[99,99,99,99,4,23,99,99,4,3,97,4,4,4,4,0,3,3,4,99,99,88,3,99,99,99,99,3,3,3,99,0,0,0,0,0,0,0,0,0,0,0,0,0,0,0,0,0,0,0,0,0,0,0,0,0,0,0,0,0,0],"split_type":[0,0,0,0,0,0,0,0,0,0,0,0,0,0,0,0,0,0,0,0,0,0,0,0,0,0,0,0,0,0,0,0,0,0,0,0,0,0,0,0,0,0,0,0,0,0,0,0,0,0,0,0,0,0,0,0,0,0,0,0,0],"sum_hessian":[6.989E3,3.922E3,3.067E3,2.507E3,1.415E3,2.157E3,9.1E2,2.041E3,4.66E2,4.52E2,9.63E2,5.87E2,1.57E3,6.13E2,2.97E2,1.662E3,3.79E2,2.47E2,2.19E2,3.07E2,1.45E2,3.89E2,5.74E2,4.45E2,1.42E2,2.56E2,1.314E3,2.47E2,3.66E2,1.64E2,1.33E2,2.81E2,9.8E1,1.83E2,6.4E1,5.6E1,1.63E2,2.15E2,9.2E1,5.7E1,8.8E1,6E0,3.83E2,3.03E2,2.71E2,3.18E2,1.27E2,7.6E1,6.6E1,2.02E2,5.4E1,6.05E2,7.09E2,6.7E1,1.8E2,2.44E2,1.22E2,2.5E1,1.39E2,9.9E1,3.4E1],"tree_param":{"num_deleted":"0","num_feature":"103","num_nodes":"61","size_leaf_vector":"1"}},{"base_weights":[1.0748791E-3,-6.563224E-1,9.891711E-1,-9.0475833E-1,-9.43245E-2,7.06796E-1,1.7673167E0,-9.968419E-1,-5.8163804E-1,2.8588763E-1,-6.600566E-1,9.617282E-1,2.4020243E-1,1.9286512E0,1.05865E0,-1.0083786E0,-7.315664E-1,-8.904383E-1,-3.0615634E-1,7.326259E-1,-1.7095485E-1,-3.4682843E-1,-8.8651294E-1,6.796659E-1,1.4354047E0,-2.139416E-1,6.234252E-1,2.7048597E0,1.8396583E0,1.3044852E0,5.900569E-1,-5.0683796E-2,-3.5067577E-2,-2.8588295E-2,-5.0143566E-2,-5.0503995E-2,-3.5503693E-2,6.024608E-3,-3.34613E-2,2.14356E-2,6.651107E-2,1.7128559E-2,-2.364105E-2,4.4903425E-3,-3.4736272E-2,-3.3618208E-2,-5.616157E-2,5.1531453E-2,1.6363955E-3,1.0865094E-1,5.8161356E-2,1.6399233E-2,-3.4384314E-2,7.7620454E-2,1.5108198E-2,5.9221637E-2,1.4259312E-1,8.31877E-2,1.1782154E-1,8.533085E-2,4.0795263E-2,1.3983786E-2,6.478173E-2],"categories":[],"categories_nodes":[],"categories_segments":[],"categories_sizes":[],"default_left":[0,0,0,0,0,0,0,0,0,0,0,0,0,0,0,0,0,0,0,0,0,0,0,0,0,0,0,0,0,0,0,0,0,0,0,0,0,0,0,0,0,0,0,0,0,0,0,0,0,0,0,0,0,0,0,0,0,0,0,0,0,0,0],"id":15,"left_children":[1,3,5,7,9,11,13,15,17,19,21,23,25,27,29,31,33,35,37,39,41,43,45,47,49,51,53,55,57,59,61,-1,-1,-1,-1,-1,-1,-1,-1,-1,-1,-1,-1,-1,-1,-1,-1,-1,-1,-1,-1,-1,-1,-1,-1,-1,-1,-1,-1,-1,-1,-1,-1],"loss_changes":[4.541156E3,5.860415E2,6.1245386E2,8.603418E1,2.7723517E2,2.4373486E2,8.290723E1,6.190918E0,5.485196E1,1.5747789E2,3.6435562E1,1.761864E2,1.2648518E2,3.6746582E1,1.5357834E1,2.8137207E0,3.6753502E0,5.864395E0,5.3367306E1,7.026059E1,5.937813E1,3.3329388E1,1.44526825E1,1.891001E2,9.664874E1,8.571819E1,1.1711885E2,1.0032562E1,4.5621338E1,1.6486649E1,1.05875435E1,0E0,0E0,0E0,0E0,0E0,0E0,0E0,0E0,0E0,0E0,0E0,0E0,0E0,0E0,0E0,0E0,0E0,0E0,0E0,0E0,0E0,0E0,0E0,0E0,0E0,0E0,0E0,0E0,0E0,0E0,0E0,0E0],"parents":[2147483647,0,0,1,1,2,2,3,3,4,4,5,5,6,6,7,7,8,8,9,9,10,10,11,11,12,12,13,13,14,14,15,15,16,16,17,17,18,18,19,19,20,20,21,21,22,22,23,23,24,24,25,25,26,26,27,27,28,28,29,29,30,30],"right_children":[2,4,6,8,10,12,14,16,18,20,22,24,26,28,30,32,34,36,38,40,42,44,46,48,50,52,54,56,58,60,62,-1,-1,-1,-1,-1,-1,-1,-1,-1,-1,-1,-1,-1,-1,-1,-1,-1,-1,-1,-1,-1,-1,-1,-1,-1,-1,-1,-1,-1,-1,-1,-1],"split_conditions":[2.4316315E-1,-4.541915E-1,1.3805038E0,-4.1120467E-1,8.561914E-2,9.300992E-1,-7.269798E-1,-3.34121E-1,-8.6049545E-1,-3.9016332E-2,4.7251272E-1,7.898393E-1,9.094756E-1,7.2674865E-1,1.9583689E0,1.1931823E0,-8.3002627E-1,-1.0378153E0,-8.580815E-1,-1.2901962E-1,-7.4025357E-1,-2.2564048E-1,-3.1152046E-1,7.399225E-1,8.161692E-1,3.2045206E-1,5.712784E-1,-1.3290615E0,2.1222723E0,1.7589667E0,1.7911156E0,-5.0683796E-2,-3.5067577E-2,-2.8588295E-2,-5.0143566E-2,-5.0503995E-2,-3.5503693E-2,6.024608E-3,-3.34613E-2,2.14356E-2,6.651107E-2,1.7128559E-2,-2.364105E-2,4.4903425E-3,-3.4736272E-2,-3.3618208E-2,-5.616157E-2,5.1531453E-2,1.6363955E-3,1.0865094E-1,5.8161356E-2,1.6399233E-2,-3.4384314E-2,7.7620454E-2,1.5108198E-2,5.9221637E-2,1.4259312E-1,8.31877E-2,1.1782154E-1,8.533085E-2,4.0795263E-2,1.3983786E-2,6.478173E-2],"split_indices":[99,99,99,25,4,4,87,26,99,3,4,99,99,4,4,97,4,99,3,99,4,3,3,3,3,3,3,57,99,3,99,0,0,0,0,0,0,0,0,0,0,0,0,0,0,0,0,0,0,0,0,0,0,0,0,0,0,0,0,0,0,0,0],"split_type":[0,0,0,0,0,0,0,0,0,0,0,0,0,0,0,0,0,0,0,0,0,0,0,0,0,0,0,0,0,0,0,0,0,0,0,0,0,0,0,0,0,0,0,0,0,0,0,0,0,0,0,0,0,0,0,0,0,0,0,0,0,0,0],"sum_hessian":[6.989E3,4.197E3,2.792E3,2.91E3,1.287E3,2.05E3,7.42E2,2.263E3,6.47E2,7.7E2,5.17E2,1.325E3,7.25E2,6.03E2,1.39E2,2.166E3,9.7E1,3.04E2,3.43E2,3.89E2,3.81E2,2.18E2,2.99E2,8.32E2,4.93E2,3.32E2,3.93E2,5.9E1,5.44E2,9E1,4.9E1,2.127E3,3.9E1,6.3E1,3.4E1,1.8E2,1.24E2,1.58E2,1.85E2,2.59E2,1.3E2,1.41E2,2.4E2,9.7E1,1.21E2,1.59E2,1.4E2,5.39E2,2.93E2,1.31E2,3.62E2,1.55E2,1.77E2,1E2,2.93E2,6E0,5.3E1,4.09E2,1.35E2,4.8E1,4.2E1,3.5E1,1.4E1],"tree_param":{"num_deleted":"0","num_feature":"103","num_nodes":"63","size_leaf_vector":"1"}},{"base_weights":[1.1049332E-3,-7.1164024E-1,8.276864E-1,-9.319227E-1,-3.3846602E-1,4.0703228E-1,1.3523451E0,-9.6916384E-1,-7.481232E-1,1.7840685E-1,-6.534456E-1,7.8293645E-1,6.7218E-4,1.0215794E0,1.7438911E0,-4.9141675E-2,-8.958061E-1,-6.1352265E-1,-4.9646314E-2,5.742919E-1,-1.8656851E-1,-9.783055E-1,-4.3686518E-1,1.208718E0,4.7411638E-1,-4.713493E-1,2.732225E-1,1.4014682E0,4.9858478E-1,1.883167E0,1.0627573E0,-4.117791E-2,-4.9595904E-2,-1.8847302E-2,-4.9961504E-2,7.783054E-3,5.2395053E-2,-3.580145E-2,9.803247E-3,-4.236681E-2,-5.689886E-2,-6.2369998E-3,-4.1476093E-2,4.559798E-2,8.595368E-2,2.548933E-4,4.4934183E-2,4.7318074E-3,-4.59778E-2,4.6721306E-2,-4.6819723E-3,1.0713941E-1,5.8441896E-2,6.942483E-2,1.0234969E-2,1.2424518E-1,8.7201305E-2,1.7574277E-2,6.2930174E-2],"categories":[],"categories_nodes":[],"categories_segments":[],"categories_sizes":[],"default_left":[0,0,0,0,0,0,0,0,0,0,0,0,0,0,0,0,0,0,0,0,0,0,0,0,0,0,0,0,0,0,0,0,0,0,0,0,0,0,0,0,0,0,0,0,0,0,0,0,0,0,0,0,0,0,0,0,0,0,0],"id":16,"left_children":[1,3,5,7,9,11,13,15,17,19,21,23,25,27,29,-1,31,33,-1,35,37,39,41,43,45,47,49,51,53,55,57,-1,-1,-1,-1,-1,-1,-1,-1,-1,-1,-1,-1,-1,-1,-1,-1,-1,-1,-1,-1,-1,-1,-1,-1,-1,-1,-1,-1],"loss_changes":[4.118692E3,3.0827722E2,7.13855E2,1.5428955E1,2.2722874E2,2.7464835E2,1.8471289E2,1.0839844E0,1.2636963E1,7.654144E1,6.0573242E1,1.22238464E2,1.114107E2,1.548675E2,6.0420288E1,0E0,1.3981934E0,2.3530678E1,0E0,5.0196808E1,5.605503E1,6.2713013E0,6.387181E1,5.7801575E1,1.0812297E2,8.0503105E1,1.3325867E2,7.561688E1,8.6282906E1,4.1296875E1,1.5437805E1,0E0,0E0,0E0,0E0,0E0,0E0,0E0,0E0,0E0,0E0,0E0,0E0,0E0,0E0,0E0,0E0,0E0,0E0,0E0,0E0,0E0,0E0,0E0,0E0,0E0,0E0,0E0,0E0],"parents":[2147483647,0,0,1,1,2,2,3,3,4,4,5,5,6,6,7,7,8,8,9,9,10,10,11,11,12,12,13,13,14,14,16,16,17,17,19,19,20,20,21,21,22,22,23,23,24,24,25,25,26,26,27,27,28,28,29,29,30,30],"right_children":[2,4,6,8,10,12,14,16,18,20,22,24,26,28,30,-1,32,34,-1,36,38,40,42,44,46,48,50,52,54,56,58,-1,-1,-1,-1,-1,-1,-1,-1,-1,-1,-1,-1,-1,-1,-1,-1,-1,-1,-1,-1,-1,-1,-1,-1,-1,-1,-1,-1],"split_conditions":[6.978082E-3,-7.7073455E-1,9.3967086E-1,-9.528216E-1,-6.048753E-1,4.420896E-1,1.4578329E0,-1.079322E0,-5.6888556E-1,-4.206554E-1,-3.8111115E-1,4.1692415E-1,4.7004646E-1,1.140509E0,-7.269798E-1,-4.9141675E-2,-9.6002114E-1,-8.219903E-1,-4.9646314E-2,-5.540125E-1,-4.3437287E-1,-7.400001E-1,1.475587E-1,3.4248313E-1,4.7004646E-1,2.8982123E-2,3.3289433E-1,8.2520026E-1,5.712784E-1,1.191923E0,1.5566964E0,-4.117791E-2,-4.9595904E-2,-1.8847302E-2,-4.9961504E-2,7.783054E-3,5.2395053E-2,-3.580145E-2,9.803247E-3,-4.236681E-2,-5.689886E-2,-6.2369998E-3,-4.1476093E-2,4.559798E-2,8.595368E-2,2.548933E-4,4.4934183E-2,4.7318074E-3,-4.59778E-2,4.6721306E-2,-4.6819723E-3,1.0713941E-1,5.8441896E-2,6.942483E-2,1.0234969E-2,1.2424518E-1,8.7201305E-2,1.7574277E-2,6.2930174E-2],"split_indices":[99,99,99,99,4,4,99,99,4,3,99,3,99,4,87,0,4,3,0,99,99,3,4,99,99,3,3,3,3,3,99,0,0,0,0,0,0,0,0,0,0,0,0,0,0,0,0,0,0,0,0,0,0,0,0,0,0,0,0],"split_type":[0,0,0,0,0,0,0,0,0,0,0,0,0,0,0,0,0,0,0,0,0,0,0,0,0,0,0,0,0,0,0,0,0,0,0,0,0,0,0,0,0,0,0,0,0,0,0,0,0,0,0,0,0,0,0,0,0,0,0],"sum_hessian":[6.989E3,3.753E3,3.236E3,2.359E3,1.394E3,1.797E3,1.439E3,1.958E3,4.01E2,5.28E2,8.66E2,9.33E2,8.64E2,7.82E2,6.57E2,1.64E3,3.18E2,2.61E2,1.4E2,2.53E2,2.75E2,3.45E2,5.21E2,3.91E2,5.42E2,3.16E2,5.48E2,4.52E2,3.3E2,5.44E2,1.13E2,1.87E2,1.31E2,1.63E2,9.8E1,1.35E2,1.18E2,1.15E2,1.6E2,1.93E2,1.52E2,2.91E2,2.3E2,2.49E2,1.42E2,2.58E2,2.84E2,1.4E2,1.76E2,1.95E2,3.53E2,1.06E2,3.46E2,8.1E1,2.49E2,9.9E1,4.45E2,2.5E1,8.8E1],"tree_param":{"num_deleted":"0","num_feature":"103","num_nodes":"59","size_leaf_vector":"1"}},{"base_weights":[1.0988902E-3,-6.440903E-1,8.260911E-1,-8.407625E-1,-1.9387326E-1,5.255008E-1,1.4708192E0,-9.040596E-1,-5.0747246E-1,-7.472638E-1,2.5511386E-2,6.882131E-1,-2.0787033E-1,1.2506652E0,1.8764704E0,-9.09553E-1,-1.1508212E-1,-6.774692E-1,-1.1675242E-1,-8.696382E-1,-5.387432E-1,5.1953983E-1,-1.6669661E-1,4.2397726E-1,1.0759603E0,-8.3407146E-1,7.9732746E-2,1.4757533E0,5.3191847E-1,2.2589593E0,1.5819815E0,-4.956317E-3,-4.558253E-2,-1.31374225E-2,3.3080515E-2,-4.3853845E-2,-2.793698E-2,2.3468623E-2,-2.300791E-2,-4.6378296E-2,-3.7205905E-2,-2.2947006E-2,-4.8620302E-2,9.684626E-3,4.5143563E-2,-9.602336E-4,-3.678044E-2,3.71505E-2,-7.942787E-3,7.966832E-2,3.6422137E-2,-1.6392883E-2,-5.667142E-2,3.003178E-2,-2.0737546E-2,1.0940708E-1,6.336032E-2,5.81714E-2,1.1159676E-2,1.2996523E-1,9.510542E-2,6.1927367E-2,1.06572345E-1],"categories":[],"categories_nodes":[],"categories_segments":[],"categories_sizes":[],"default_left":[0,0,0,0,0,0,0,0,0,0,0,0,0,0,0,0,0,0,0,0,0,0,0,0,0,0,0,0,0,0,0,0,0,0,0,0,0,0,0,0,0,0,0,0,0,0,0,0,0,0,0,0,0,0,0,0,0,0,0,0,0,0,0],"id":17,"left_children":[1,3,5,7,9,11,13,15,17,19,21,23,25,27,29,31,33,35,37,39,41,43,45,47,49,51,53,55,57,59,61,-1,-1,-1,-1,-1,-1,-1,-1,-1,-1,-1,-1,-1,-1,-1,-1,-1,-1,-1,-1,-1,-1,-1,-1,-1,-1,-1,-1,-1,-1,-1,-1],"loss_changes":[3.7211416E3,3.471997E2,5.9380225E2,5.713391E1,1.449771E2,2.500169E2,8.472632E1,9.833862E0,2.901336E1,8.181946E0,8.1369125E1,1.7515466E2,6.868361E1,1.0194623E2,3.483618E1,3.7800293E0,2.1235895E0,6.7382355E0,2.7187326E1,8.5124207E-1,3.9834976E0,2.9802933E1,5.1758316E1,1.8996559E2,1.23625916E2,1.7813026E1,6.773453E1,6.898474E1,2.956963E1,1.2787903E1,3.4346283E1,0E0,0E0,0E0,0E0,0E0,0E0,0E0,0E0,0E0,0E0,0E0,0E0,0E0,0E0,0E0,0E0,0E0,0E0,0E0,0E0,0E0,0E0,0E0,0E0,0E0,0E0,0E0,0E0,0E0,0E0,0E0,0E0],"parents":[2147483647,0,0,1,1,2,2,3,3,4,4,5,5,6,6,7,7,8,8,9,9,10,10,11,11,12,12,13,13,14,14,15,15,16,16,17,17,18,18,19,19,20,20,21,21,22,22,23,23,24,24,25,25,26,26,27,27,28,28,29,29,30,30],"right_children":[2,4,6,8,10,12,14,16,18,20,22,24,26,28,30,32,34,36,38,40,42,44,46,48,50,52,54,56,58,60,62,-1,-1,-1,-1,-1,-1,-1,-1,-1,-1,-1,-1,-1,-1,-1,-1,-1,-1,-1,-1,-1,-1,-1,-1,-1,-1,-1,-1,-1,-1,-1,-1],"split_conditions":[9.5815495E-2,-3.4780046E-1,1.2201412E0,-3.8236287E-1,-7.7073455E-1,1.1917584E0,1.7911156E0,4.6303603E-1,-2.2043487E-1,-9.528216E-1,-7.159772E-1,6.9004816E-1,6.782437E-1,1.6820068E0,1.834149E0,-1.4632174E0,8.683154E-1,-9.002123E-1,-2.1165892E-1,-1.079322E0,-5.5738765E-1,-4.6283755E-1,-1.9576222E-2,6.090897E-1,8.2520026E-1,-1.7751651E-4,6.279447E-1,9.8218894E-1,9.3027574E-1,1.8677042E0,2.305659E0,-4.956317E-3,-4.558253E-2,-1.31374225E-2,3.3080515E-2,-4.3853845E-2,-2.793698E-2,2.3468623E-2,-2.300791E-2,-4.6378296E-2,-3.7205905E-2,-2.2947006E-2,-4.8620302E-2,9.684626E-3,4.5143563E-2,-9.602336E-4,-3.678044E-2,3.71505E-2,-7.942787E-3,7.966832E-2,3.6422137E-2,-1.6392883E-2,-5.667142E-2,3.003178E-2,-2.0737546E-2,1.0940708E-1,6.336032E-2,5.81714E-2,1.1159676E-2,1.2996523E-1,9.510542E-2,6.1927367E-2,1.06572345E-1],"split_indices":[99,25,99,75,99,4,99,26,99,99,3,99,99,4,3,38,54,99,3,99,3,99,4,3,3,3,3,3,3,4,99,0,0,0,0,0,0,0,0,0,0,0,0,0,0,0,0,0,0,0,0,0,0,0,0,0,0,0,0,0,0,0,0],"split_type":[0,0,0,0,0,0,0,0,0,0,0,0,0,0,0,0,0,0,0,0,0,0,0,0,0,0,0,0,0,0,0,0,0,0,0,0,0,0,0,0,0,0,0,0,0,0,0,0,0,0,0,0,0,0,0,0,0,0,0,0,0,0,0],"sum_hessian":[6.989E3,3.922E3,3.067E3,2.729E3,1.193E3,2.093E3,9.74E2,2.292E3,4.37E2,3.38E2,8.55E2,1.713E3,3.8E2,6.34E2,3.4E2,2.276E3,1.6E1,3.04E2,1.33E2,2.11E2,1.27E2,2.39E2,6.16E2,1.02E3,6.93E2,1.19E2,2.61E2,4.82E2,1.52E2,1.45E2,1.95E2,6E0,2.27E3,1.4E1,2E0,1.11E2,1.93E2,4.9E1,8.4E1,1.4E2,7.1E1,1.09E2,1.8E1,1.3E2,1.09E2,4.9E2,1.26E2,6.59E2,3.61E2,2.77E2,4.16E2,4.5E1,7.4E1,1.27E2,1.34E2,1.07E2,3.75E2,4.9E1,1.03E2,7.1E1,7.4E1,1.22E2,7.3E1],"tree_param":{"num_deleted":"0","num_feature":"103","num_nodes":"63","size_leaf_vector":"1"}},{"base_weights":[1.1121709E-3,-5.61131E-1,8.578729E-1,-7.780071E-1,-7.914202E-2,6.3200533E-1,1.5818857E0,-8.558288E-1,-5.0491095E-1,4.208143E-1,-4.3540445E-1,1.3386766E0,4.9430647E-1,9.279331E-1,1.7100329E0,-8.7119085E-1,-6.9979274E-1,-7.6448196E-1,-2.7330023E-1,6.1791605E-1,-4.753714E-1,-2.1015868E-1,-8.256161E-1,1.2116327E0,2.4256737E0,2.677491E-2,7.2983706E-1,1.1982979E0,4.4370207E-1,2.0483353E0,1.4992818E0,2.365923E-3,-4.360539E-2,-1.306919E-4,-3.7123192E-2,-4.335336E-2,-3.0491138E-2,5.809984E-3,-3.0239522E-2,1.2928851E-2,5.5003535E-2,-4.6589877E-2,-4.7188997E-4,-3.3031147E-2,8.174231E-3,-3.4511756E-2,-5.899627E-2,7.027398E-2,1.9025652E-2,1.2521215E-1,-6.1421394E-3,2.808251E-2,-1.8861085E-2,4.3463E-2,-6.5279217E-3,9.946718E-3,6.620198E-2,-1.2513423E-2,5.2720804E-2,1.4908853E-1,9.3713164E-2,6.237464E-2,9.5267795E-2],"categories":[],"categories_nodes":[],"categories_segments":[],"categories_sizes":[],"default_left":[0,0,0,0,0,0,0,0,0,0,0,0,0,0,0,0,0,0,0,0,0,0,0,0,0,0,0,0,0,0,0,0,0,0,0,0,0,0,0,0,0,0,0,0,0,0,0,0,0,0,0,0,0,0,0,0,0,0,0,0,0,0,0],"id":18,"left_children":[1,3,5,7,9,11,13,15,17,19,21,23,25,27,29,31,33,35,37,39,41,43,45,47,49,51,53,55,57,59,61,-1,-1,-1,-1,-1,-1,-1,-1,-1,-1,-1,-1,-1,-1,-1,-1,-1,-1,-1,-1,-1,-1,-1,-1,-1,-1,-1,-1,-1,-1,-1,-1],"loss_changes":[3.3676194E3,4.4116748E2,4.5198132E2,6.1434814E1,2.3369284E2,2.0494965E2,5.3555054E1,4.8171387E0,3.874846E1,9.673902E1,6.715294E1,4.45661E1,1.9488928E2,1.3869408E1,3.607129E1,1.7738037E0,6.1859283E0,4.3102875E0,4.4485977E1,7.733467E1,2.104497E1,8.207641E1,1.2616272E1,4.94093E1,7.315857E0,1.2856802E2,1.4130505E2,8.532906E0,1.7640408E1,2.8208374E1,3.259088E1,0E0,0E0,0E0,0E0,0E0,0E0,0E0,0E0,0E0,0E0,0E0,0E0,0E0,0E0,0E0,0E0,0E0,0E0,0E0,0E0,0E0,0E0,0E0,0E0,0E0,0E0,0E0,0E0,0E0,0E0,0E0,0E0],"parents":[2147483647,0,0,1,1,2,2,3,3,4,4,5,5,6,6,7,7,8,8,9,9,10,10,11,11,12,12,13,13,14,14,15,15,16,16,17,17,18,18,19,19,20,20,21,21,22,22,23,23,24,24,25,25,26,26,27,27,28,28,29,29,30,30],"right_children":[2,4,6,8,10,12,14,16,18,20,22,24,26,28,30,32,34,36,38,40,42,44,46,48,50,52,54,56,58,60,62,-1,-1,-1,-1,-1,-1,-1,-1,-1,-1,-1,-1,-1,-1,-1,-1,-1,-1,-1,-1,-1,-1,-1,-1,-1,-1,-1,-1,-1,-1,-1,-1],"split_conditions":[2.5326428E-1,-4.541915E-1,1.4578329E0,-4.1120467E-1,-2.508335E-1,9.040755E-3,2.6902786E-1,-1.2020518E-1,-8.6049545E-1,5.3467757E-1,-1.3631975E-2,9.7417414E-1,6.782437E-1,2.0381386E0,1.4289975E0,-1.7851878E0,-6.138661E-1,-1.0378153E0,-8.580815E-1,-1.6126613E-1,-4.1562626E-3,-1.4985631E-1,5.4628164E-1,1.2187701E0,1.4728217E0,3.098192E-1,1.6071434E0,-1.8042736E0,1.8737795E0,1.1822168E0,2.0817177E0,2.365923E-3,-4.360539E-2,-1.306919E-4,-3.7123192E-2,-4.335336E-2,-3.0491138E-2,5.809984E-3,-3.0239522E-2,1.2928851E-2,5.5003535E-2,-4.6589877E-2,-4.7188997E-4,-3.3031147E-2,8.174231E-3,-3.4511756E-2,-5.899627E-2,7.027398E-2,1.9025652E-2,1.2521215E-1,-6.1421394E-3,2.808251E-2,-1.8861085E-2,4.3463E-2,-6.5279217E-3,9.946718E-3,6.620198E-2,-1.2513423E-2,5.2720804E-2,1.4908853E-1,9.3713164E-2,6.237464E-2,9.5267795E-2],"split_indices":[99,99,99,25,4,4,25,2,99,3,3,99,99,4,4,37,32,99,3,99,99,99,3,3,27,3,4,43,99,3,99,0,0,0,0,0,0,0,0,0,0,0,0,0,0,0,0,0,0,0,0,0,0,0,0,0,0,0,0,0,0,0,0],"split_type":[0,0,0,0,0,0,0,0,0,0,0,0,0,0,0,0,0,0,0,0,0,0,0,0,0,0,0,0,0,0,0,0,0,0,0,0,0,0,0,0,0,0,0,0,0,0,0,0,0,0,0,0,0,0,0,0,0,0,0,0,0,0,0],"sum_hessian":[6.989E3,4.22E3,2.769E3,2.91E3,1.31E3,2.112E3,6.57E2,2.263E3,6.47E2,5.45E2,7.65E2,3.43E2,1.769E3,1.09E2,5.48E2,2.056E3,2.07E2,3.04E2,3.43E2,4.47E2,9.8E1,4.86E2,2.79E2,3.09E2,3.4E1,5.93E2,1.176E3,6.9E1,4E1,2.07E2,3.41E2,2E0,2.054E3,1.2E1,1.95E2,1.8E2,1.24E2,1.58E2,1.85E2,2.57E2,1.9E2,4.9E1,4.9E1,2.2E2,2.66E2,2.04E2,7.5E1,2.5E2,5.9E1,3.3E1,1E0,2.55E2,3.38E2,1.012E3,1.64E2,8E0,6.1E1,1.9E1,2.1E1,3E1,1.77E2,2.13E2,1.28E2],"tree_param":{"num_deleted":"0","num_feature":"103","num_nodes":"63","size_leaf_vector":"1"}},{"base_weights":[1.1276546E-3,-6.1195886E-1,7.121334E-1,-7.7131075E-1,-2.297391E-1,3.6019155E-1,1.1872618E0,-8.195239E-1,-4.8652893E-1,-6.789546E-1,-1.999924E-2,8.0791634E-1,7.309363E-2,9.436892E-1,1.5735494E0,-8.243593E-1,-8.8618726E-2,-6.131383E-1,-5.7134286E-2,-7.8852683E-1,-4.903605E-1,4.712805E-1,-2.3747423E-1,1.3747101E0,6.2026894E-1,-3.0442843E-1,3.6871436E-1,1.2122695E0,3.6523324E-1,1.7935116E0,1.1975646E0,-4.1286875E-2,-2.034135E-3,-1.3513711E-2,2.6195819E-2,-2.4060061E-2,-3.9594483E-2,2.1258652E-2,-2.2091873E-2,-4.190643E-2,-3.3824157E-2,-1.8919898E-2,-3.8380247E-2,1.2002303E-2,4.580378E-2,8.710221E-3,-2.0864276E-2,5.953476E-2,9.8476216E-2,1.0217977E-2,4.934409E-2,3.6752117E-3,-4.10314E-2,4.3189302E-2,-3.3142914E-3,7.111457E-2,3.1496853E-2,8.5588254E-2,9.804985E-3,7.968014E-2,1.19299665E-1,4.3710172E-2,9.038272E-2],"categories":[],"categories_nodes":[],"categories_segments":[],"categories_sizes":[],"default_left":[0,0,0,0,0,0,0,0,0,0,0,0,0,0,0,0,0,0,0,0,0,0,0,0,0,0,0,0,0,0,0,0,0,0,0,0,0,0,0,0,0,0,0,0,0,0,0,0,0,0,0,0,0,0,0,0,0,0,0,0,0,0,0],"id":19,"left_children":[1,3,5,7,9,11,13,15,17,19,21,23,25,27,29,31,33,35,37,39,41,43,45,47,49,51,53,55,57,59,61,-1,-1,-1,-1,-1,-1,-1,-1,-1,-1,-1,-1,-1,-1,-1,-1,-1,-1,-1,-1,-1,-1,-1,-1,-1,-1,-1,-1,-1,-1,-1,-1],"loss_changes":[3.047433E3,2.2846924E2,5.408557E2,3.5972656E1,1.04191956E2,2.3915549E2,1.2807556E2,7.928467E0,2.0950005E1,6.887314E0,8.077692E1,7.646912E1,1.26782036E2,1.311488E2,4.176709E1,2.3955078E0,1.9219271E0,6.646965E0,1.6701376E1,6.612396E-1,3.8069534E0,2.364175E1,3.886151E1,1.735675E1,8.3356125E1,9.740958E1,1.3723921E2,6.979486E1,6.115513E1,3.5639038E1,3.7678314E1,0E0,0E0,0E0,0E0,0E0,0E0,0E0,0E0,0E0,0E0,0E0,0E0,0E0,0E0,0E0,0E0,0E0,0E0,0E0,0E0,0E0,0E0,0E0,0E0,0E0,0E0,0E0,0E0,0E0,0E0,0E0,0E0],"parents":[2147483647,0,0,1,1,2,2,3,3,4,4,5,5,6,6,7,7,8,8,9,9,10,10,11,11,12,12,13,13,14,14,15,15,16,16,17,17,18,18,19,19,20,20,21,21,22,22,23,23,24,24,25,25,26,26,27,27,28,28,29,29,30,30],"right_children":[2,4,6,8,10,12,14,16,18,20,22,24,26,28,30,32,34,36,38,40,42,44,46,48,50,52,54,56,58,60,62,-1,-1,-1,-1,-1,-1,-1,-1,-1,-1,-1,-1,-1,-1,-1,-1,-1,-1,-1,-1,-1,-1,-1,-1,-1,-1,-1,-1,-1,-1,-1,-1],"split_conditions":[6.978082E-3,-3.6562717E-1,9.7417414E-1,-3.8236287E-1,-7.7073455E-1,2.0943144E-1,1.5705581E0,4.6303603E-1,-2.0588791E-1,-9.528216E-1,-7.159772E-1,1.5628237E-1,5.324817E-1,1.3725307E0,1.8677042E0,2.9078522E0,3.879998E-1,-7.697012E-1,-2.3948835E-1,-1.079322E0,-9.021065E-1,-3.9801297E-1,-3.1457877E-1,3.4248313E-1,4.0000197E-1,2.7016917E-1,5.5384505E-1,1.5314186E0,3.098192E-1,2.0467284E0,2.2403305E0,-4.1286875E-2,-2.034135E-3,-1.3513711E-2,2.6195819E-2,-2.4060061E-2,-3.9594483E-2,2.1258652E-2,-2.2091873E-2,-4.190643E-2,-3.3824157E-2,-1.8919898E-2,-3.8380247E-2,1.2002303E-2,4.580378E-2,8.710221E-3,-2.0864276E-2,5.953476E-2,9.8476216E-2,1.0217977E-2,4.934409E-2,3.6752117E-3,-4.10314E-2,4.3189302E-2,-3.3142914E-3,7.111457E-2,3.1496853E-2,8.5588254E-2,9.804985E-3,7.968014E-2,1.19299665E-1,4.3710172E-2,9.038272E-2],"split_indices":[99,25,99,75,99,4,99,26,99,99,3,3,99,4,4,6,54,4,3,99,3,99,77,99,99,3,3,3,3,99,99,0,0,0,0,0,0,0,0,0,0,0,0,0,0,0,0,0,0,0,0,0,0,0,0,0,0,0,0,0,0,0,0],"split_type":[0,0,0,0,0,0,0,0,0,0,0,0,0,0,0,0,0,0,0,0,0,0,0,0,0,0,0,0,0,0,0,0,0,0,0,0,0,0,0,0,0,0,0,0,0,0,0,0,0,0,0,0,0,0,0,0,0,0,0,0,0,0,0],"sum_hessian":[6.989E3,3.753E3,3.236E3,2.648E3,1.105E3,1.86E3,1.376E3,2.263E3,3.85E2,3.51E2,7.54E2,7.26E2,1.134E3,8.46E2,5.3E2,2.248E3,1.5E1,2.97E2,8.8E1,2.2E2,1.31E2,2.31E2,5.23E2,1.79E2,5.47E2,4.98E2,6.36E2,5.77E2,2.69E2,3.32E2,1.98E2,2.244E3,4E0,1.2E1,3E0,1.73E2,1.24E2,3.9E1,4.9E1,1.48E2,7.2E1,9.5E1,3.6E1,1.53E2,7.8E1,1.59E2,3.64E2,1.39E2,4E1,2.57E2,2.9E2,2.88E2,2.1E2,2.97E2,3.39E2,4.23E2,1.54E2,2.9E1,2.4E2,2.51E2,8.1E1,1.31E2,6.7E1],"tree_param":{"num_deleted":"0","num_feature":"103","num_nodes":"63","size_leaf_vector":"1"}},{"base_weights":[1.1526647E-3,-5.337932E-1,7.3868227E-1,-7.1738034E-1,-1.3060929E-1,5.1487654E-1,1.3762791E0,-7.8419566E-1,-5.0868255E-1,3.5520938E-1,-4.7057256E-1,7.6239216E-1,1.1304941E-1,1.5068233E0,8.094991E-1,-4.016958E-2,-7.061055E-1,-2.0708458E-1,-8.2610375E-1,8.638188E-1,2.4615785E-2,-2.2677702E-1,-7.665055E-1,5.6064284E-1,1.2437553E0,-4.3532437E-1,3.7920052E-1,2.2530591E0,1.4182155E0,1.013348E0,3.4875146E-1,-3.2191813E-2,-4.348932E-2,6.3680945E-4,-3.697603E-2,-3.6006093E-2,-4.9707647E-2,2.7297303E-2,6.689233E-2,-2.3030056E-2,1.8349512E-2,4.1780737E-3,-3.2288406E-2,-4.8325203E-2,-2.735403E-2,4.698609E-2,5.1523186E-3,8.043188E-2,3.8343694E-2,9.067003E-3,-3.7063237E-2,4.0813386E-2,-1.6734479E-3,4.6839237E-2,1.1865369E-1,6.348013E-2,9.339158E-2,8.862705E-2,4.006965E-2,-2.4462428E-3,4.5822274E-2],"categories":[],"categories_nodes":[],"categories_segments":[],"categories_sizes":[],"default_left":[0,0,0,0,0,0,0,0,0,0,0,0,0,0,0,0,0,0,0,0,0,0,0,0,0,0,0,0,0,0,0,0,0,0,0,0,0,0,0,0,0,0,0,0,0,0,0,0,0,0,0,0,0,0,0,0,0,0,0,0,0],"id":20,"left_children":[1,3,5,7,9,11,13,15,17,19,21,23,25,27,29,-1,31,33,35,37,39,41,43,45,47,49,51,53,55,57,59,-1,-1,-1,-1,-1,-1,-1,-1,-1,-1,-1,-1,-1,-1,-1,-1,-1,-1,-1,-1,-1,-1,-1,-1,-1,-1,-1,-1,-1,-1],"loss_changes":[2.758218E3,2.9983276E2,4.186803E2,3.8421875E1,2.0975581E2,2.1643494E2,5.5234497E1,2.5910645E0,6.47363E1,8.791755E1,5.3720062E1,1.3011609E2,1.21449776E2,3.7734375E1,1.3265427E1,0E0,3.7615356E0,4.085655E1,5.1614532E0,3.03098E1,5.2997055E1,5.3495903E1,1.4260391E1,1.6486859E2,6.784662E1,5.1450623E1,1.0103132E2,7.8871765E0,3.4779785E1,1.4670959E1,1.0429727E1,0E0,0E0,0E0,0E0,0E0,0E0,0E0,0E0,0E0,0E0,0E0,0E0,0E0,0E0,0E0,0E0,0E0,0E0,0E0,0E0,0E0,0E0,0E0,0E0,0E0,0E0,0E0,0E0,0E0,0E0],"parents":[2147483647,0,0,1,1,2,2,3,3,4,4,5,5,6,6,7,7,8,8,9,9,10,10,11,11,12,12,13,13,14,14,16,16,17,17,18,18,19,19,20,20,21,21,22,22,23,23,24,24,25,25,26,26,27,27,28,28,29,29,30,30],"right_children":[2,4,6,8,10,12,14,16,18,20,22,24,26,28,30,-1,32,34,36,38,40,42,44,46,48,50,52,54,56,58,60,-1,-1,-1,-1,-1,-1,-1,-1,-1,-1,-1,-1,-1,-1,-1,-1,-1,-1,-1,-1,-1,-1,-1,-1,-1,-1,-1,-1,-1,-1],"split_conditions":[1.6051354E-1,-5.236847E-1,1.3637626E0,-9.002123E-1,-3.4693193E-1,8.6748356E-1,-7.269798E-1,-1.0666522E0,-8.2224745E-1,-2.3948835E-1,3.3269024E-1,8.235264E-1,7.458814E-1,7.2674865E-1,1.8904914E0,-4.016958E-2,-9.597576E-1,-4.5101303E-1,-8.580815E-1,-2.84811E-1,-2.357331E-1,-7.044771E-2,-8.919955E-2,6.041979E-1,1.2438384E0,2.8982123E-2,7.893458E-1,-1.3290615E0,2.1222723E0,1.2102615E0,1.7911156E0,-3.2191813E-2,-4.348932E-2,6.3680945E-4,-3.697603E-2,-3.6006093E-2,-4.9707647E-2,2.7297303E-2,6.689233E-2,-2.3030056E-2,1.8349512E-2,4.1780737E-3,-3.2288406E-2,-4.8325203E-2,-2.735403E-2,4.698609E-2,5.1523186E-3,8.043188E-2,3.8343694E-2,9.067003E-3,-3.7063237E-2,4.0813386E-2,-1.6734479E-3,4.6839237E-2,1.1865369E-1,6.348013E-2,9.339158E-2,8.862705E-2,4.006965E-2,-2.4462428E-3,4.5822274E-2],"split_indices":[99,99,99,99,4,4,87,99,4,3,4,99,99,4,3,0,3,3,3,99,99,3,99,3,3,3,3,57,99,4,99,0,0,0,0,0,0,0,0,0,0,0,0,0,0,0,0,0,0,0,0,0,0,0,0,0,0,0,0,0,0],"split_type":[0,0,0,0,0,0,0,0,0,0,0,0,0,0,0,0,0,0,0,0,0,0,0,0,0,0,0,0,0,0,0,0,0,0,0,0,0,0,0,0,0,0,0,0,0,0,0,0,0,0,0,0,0,0,0,0,0,0,0,0,0],"sum_hessian":[6.989E3,4.051E3,2.938E3,2.783E3,1.268E3,2.176E3,7.62E2,2.106E3,6.77E2,5.22E2,7.46E2,1.346E3,8.3E2,6.18E2,1.44E2,1.683E3,4.23E2,3.48E2,3.29E2,2.05E2,3.17E2,4.1E2,3.36E2,9.5E2,3.96E2,2.71E2,5.59E2,6.3E1,5.55E2,9.9E1,4.5E1,3.1E2,1.13E2,2.47E2,1.01E2,2.05E2,1.24E2,1.24E2,8.1E1,1.31E2,1.86E2,2.36E2,1.74E2,1.74E2,1.62E2,5.19E2,4.31E2,2.23E2,1.73E2,9E1,1.81E2,2.71E2,2.88E2,6E0,5.7E1,4.2E2,1.35E2,2E1,7.9E1,2.7E1,1.8E1],"tree_param":{"num_deleted":"0","num_feature":"103","num_nodes":"61","size_leaf_vector":"1"}},{"base_weights":[1.1557766E-3,-4.6799776E-1,7.6317763E-1,-6.6923666E-1,-5.425438E-2,5.4417187E-1,1.3081131E0,-7.3520315E-1,-4.377284E-1,2.2953142E-1,-6.000645E-1,7.828738E-1,1.3130656E-1,1.4320028E0,7.702109E-1,-7.6210976E-1,-6.6497797E-1,-6.513849E-1,-2.386229E-1,5.775545E-1,-1.5014818E-1,-3.6326122E-1,-8.5043705E-1,1.0728819E0,4.817645E-1,3.3713314E-1,-4.0515593E-1,1.8859212E0,1.3002868E0,8.9213544E-1,8.469229E-2,-3.8115647E-2,-1.0779524E-2,-2.1217965E-2,-3.9400365E-2,-3.7194893E-2,-2.5979763E-2,6.689103E-3,-2.72661E-2,1.4237582E-2,5.3768214E-2,1.5452002E-2,-2.1387814E-2,-3.8508784E-2,2.3268135E-3,-3.5778917E-2,-5.7290193E-2,4.11519E-2,8.10292E-2,-6.761636E-3,4.2170793E-2,3.4251462E-3,5.0180234E-2,-5.3914048E-2,-5.8612963E-3,1.2660466E-1,8.6313665E-2,5.6717046E-2,8.6876415E-2,5.5965643E-2,1.8706491E-2,5.9172552E-2,-1.04456125E-2],"categories":[],"categories_nodes":[],"categories_segments":[],"categories_sizes":[],"default_left":[0,0,0,0,0,0,0,0,0,0,0,0,0,0,0,0,0,0,0,0,0,0,0,0,0,0,0,0,0,0,0,0,0,0,0,0,0,0,0,0,0,0,0,0,0,0,0,0,0,0,0,0,0,0,0,0,0,0,0,0,0,0,0],"id":21,"left_children":[1,3,5,7,9,11,13,15,17,19,21,23,25,27,29,31,33,35,37,39,41,43,45,47,49,51,53,55,57,59,61,-1,-1,-1,-1,-1,-1,-1,-1,-1,-1,-1,-1,-1,-1,-1,-1,-1,-1,-1,-1,-1,-1,-1,-1,-1,-1,-1,-1,-1,-1,-1,-1],"loss_changes":[2.4993188E3,3.6023517E2,3.172207E2,4.4134277E1,2.1962134E2,1.8734259E2,4.9743774E1,3.7711182E0,2.7410614E1,1.2337079E2,2.8446274E1,1.0470874E2,7.720851E1,3.4556763E1,1.2043762E1,1.6662598E-2,1.8463593E1,3.4174652E0,3.8563835E1,7.067897E1,5.711324E1,4.1890717E1,8.540802E0,8.254913E1,1.3243483E2,9.034361E1,3.74733E1,9.76181E0,3.3074768E1,1.40557785E1,7.6670504E0,0E0,0E0,0E0,0E0,0E0,0E0,0E0,0E0,0E0,0E0,0E0,0E0,0E0,0E0,0E0,0E0,0E0,0E0,0E0,0E0,0E0,0E0,0E0,0E0,0E0,0E0,0E0,0E0,0E0,0E0,0E0,0E0],"parents":[2147483647,0,0,1,1,2,2,3,3,4,4,5,5,6,6,7,7,8,8,9,9,10,10,11,11,12,12,13,13,14,14,15,15,16,16,17,17,18,18,19,19,20,20,21,21,22,22,23,23,24,24,25,25,26,26,27,27,28,28,29,29,30,30],"right_children":[2,4,6,8,10,12,14,16,18,20,22,24,26,28,30,32,34,36,38,40,42,44,46,48,50,52,54,56,58,60,62,-1,-1,-1,-1,-1,-1,-1,-1,-1,-1,-1,-1,-1,-1,-1,-1,-1,-1,-1,-1,-1,-1,-1,-1,-1,-1,-1,-1,-1,-1,-1,-1],"split_conditions":[3.0971858E-1,-4.541915E-1,1.3637626E0,-4.1120467E-1,2.2815783E-1,9.300992E-1,-7.269798E-1,-1.0024087E0,-8.504178E-1,9.259709E-3,-2.3948835E-1,8.2520026E-1,1.0202342E0,1.0741068E0,2.3337889E0,2.6113597E-1,-8.2224745E-1,-1.0378153E0,-8.580815E-1,-1.2901962E-1,-6.048753E-1,-8.919955E-2,3.3978373E-1,7.095341E-1,7.613902E-1,1.0539162E0,1.0018501E0,1.2326406E0,2.1222723E0,1.8904914E0,-1.5735466E0,-3.8115647E-2,-1.0779524E-2,-2.1217965E-2,-3.9400365E-2,-3.7194893E-2,-2.5979763E-2,6.689103E-3,-2.72661E-2,1.4237582E-2,5.3768214E-2,1.5452002E-2,-2.1387814E-2,-3.8508784E-2,2.3268135E-3,-3.5778917E-2,-5.7290193E-2,4.11519E-2,8.10292E-2,-6.761636E-3,4.2170793E-2,3.4251462E-3,5.0180234E-2,-5.3914048E-2,-5.8612963E-3,1.2660466E-1,8.6313665E-2,5.6717046E-2,8.6876415E-2,5.5965643E-2,1.8706491E-2,5.9172552E-2,-1.04456125E-2],"split_indices":[99,99,99,25,4,4,87,99,99,3,3,3,3,4,4,26,4,99,3,99,4,99,3,99,99,99,99,3,99,3,42,0,0,0,0,0,0,0,0,0,0,0,0,0,0,0,0,0,0,0,0,0,0,0,0,0,0,0,0,0,0,0,0],"split_type":[0,0,0,0,0,0,0,0,0,0,0,0,0,0,0,0,0,0,0,0,0,0,0,0,0,0,0,0,0,0,0,0,0,0,0,0,0,0,0,0,0,0,0,0,0,0,0,0,0,0,0,0,0,0,0,0,0,0,0,0,0,0,0],"sum_hessian":[6.989E3,4.326E3,2.663E3,2.91E3,1.416E3,1.901E3,7.62E2,2.263E3,6.47E2,9.32E2,4.84E2,1.204E3,6.97E2,6.18E2,1.44E2,1.629E3,6.34E2,3.11E2,3.36E2,4.86E2,4.46E2,2.5E2,2.34E2,6.12E2,5.92E2,5.04E2,1.93E2,1.36E2,4.82E2,1.22E2,2.2E1,1.628E3,1E0,2.16E2,4.18E2,1.8E2,1.31E2,1.52E2,1.84E2,3.07E2,1.79E2,1.68E2,2.78E2,1.25E2,1.25E2,1.63E2,7.1E1,4.22E2,1.9E2,2.19E2,3.73E2,3.6E2,1.44E2,5.7E1,1.36E2,2.4E1,1.12E2,3.52E2,1.3E2,8.4E1,3.8E1,4E0,1.8E1],"tree_param":{"num_deleted":"0","num_feature":"103","num_nodes":"63","size_leaf_vector":"1"}},{"base_weights":[1.1510284E-3,-5.536531E-1,5.857813E-1,-6.756117E-1,-2.3965055E-1,2.3680916E-1,9.649908E-1,-7.077286E-1,-4.8221424E-1,-5.6393135E-1,-3.9066195E-2,7.5646555E-1,-1.1750005E-2,7.3709476E-1,1.3008659E0,-7.1060395E-1,-6.7549445E-2,-6.0348535E-1,-2.8685293E-1,-6.764436E-1,-4.0887558E-1,4.805795E-1,-2.846692E-1,9.9597573E-1,2.8947154E-1,3.228095E-1,-2.9489982E-1,1.4453766E0,5.405181E-1,1.5053929E0,9.4767076E-1,-2.5335178E-2,-3.578918E-2,-1.690854E-2,2.4529029E-2,-2.6472658E-2,-4.7985666E-2,9.353694E-3,-2.4862574E-2,-3.5982918E-2,-2.8948594E-2,-1.708773E-2,-3.841991E-2,3.5704564E-2,-8.1995595E-3,3.2191433E-3,-2.632354E-2,3.9838128E-2,8.134093E-2,-1.26270875E-2,3.7602697E-2,3.9834226E-4,4.2708177E-2,-3.9720755E-2,-2.6777026E-3,6.0726035E-2,1.01670936E-1,6.328767E-2,1.6854098E-2,1.0457659E-1,6.636177E-2,3.644839E-2,8.105395E-2],"categories":[],"categories_nodes":[],"categories_segments":[],"categories_sizes":[],"default_left":[0,0,0,0,0,0,0,0,0,0,0,0,0,0,0,0,0,0,0,0,0,0,0,0,0,0,0,0,0,0,0,0,0,0,0,0,0,0,0,0,0,0,0,0,0,0,0,0,0,0,0,0,0,0,0,0,0,0,0,0,0,0,0],"id":22,"left_children":[1,3,5,7,9,11,13,15,17,19,21,23,25,27,29,31,33,35,37,39,41,43,45,47,49,51,53,55,57,59,61,-1,-1,-1,-1,-1,-1,-1,-1,-1,-1,-1,-1,-1,-1,-1,-1,-1,-1,-1,-1,-1,-1,-1,-1,-1,-1,-1,-1,-1,-1,-1,-1],"loss_changes":[2.2675679E3,1.3720337E2,4.5023486E2,1.5702637E1,6.534885E1,2.2914825E2,1.23885376E2,4.0253906E0,8.616501E0,6.422554E0,7.952052E1,6.3913483E1,1.1386648E2,1.3483044E2,4.6105957E1,1.9638672E0,1.8273606E0,5.5047684E0,1.4451767E1,5.142441E-1,3.6949673E0,3.0220074E1,3.5735664E1,4.6333588E1,4.9332184E1,9.2171585E1,7.843934E1,2.6174255E1,1.1229321E2,4.0560486E1,3.4753708E1,0E0,0E0,0E0,0E0,0E0,0E0,0E0,0E0,0E0,0E0,0E0,0E0,0E0,0E0,0E0,0E0,0E0,0E0,0E0,0E0,0E0,0E0,0E0,0E0,0E0,0E0,0E0,0E0,0E0,0E0,0E0,0E0],"parents":[2147483647,0,0,1,1,2,2,3,3,4,4,5,5,6,6,7,7,8,8,9,9,10,10,11,11,12,12,13,13,14,14,15,15,16,16,17,17,18,18,19,19,20,20,21,21,22,22,23,23,24,24,25,25,26,26,27,27,28,28,29,29,30,30],"right_children":[2,4,6,8,10,12,14,16,18,20,22,24,26,28,30,32,34,36,38,40,42,44,46,48,50,52,54,56,58,60,62,-1,-1,-1,-1,-1,-1,-1,-1,-1,-1,-1,-1,-1,-1,-1,-1,-1,-1,-1,-1,-1,-1,-1,-1,-1,-1,-1,-1,-1,-1,-1,-1],"split_conditions":[-8.919955E-2,-3.6562717E-1,8.350862E-1,-4.5904094E-1,-7.3727083E-1,9.040755E-3,1.4578329E0,4.5477927E-1,-4.763923E-1,-9.528216E-1,-7.159772E-1,6.8481004E-1,2.7016917E-1,4.9531764E-1,1.8181736E0,-7.4415433E-1,3.879998E-1,-4.8975256E-1,-4.7852665E-1,-1.079322E0,-6.7674524E-1,-2.7398053E-1,-9.6002114E-1,3.4248313E-1,4.0000197E-1,4.105246E-1,4.363705E-1,1.155896E0,5.5384505E-1,1.330187E0,2.305659E0,-2.5335178E-2,-3.578918E-2,-1.690854E-2,2.4529029E-2,-2.6472658E-2,-4.7985666E-2,9.353694E-3,-2.4862574E-2,-3.5982918E-2,-2.8948594E-2,-1.708773E-2,-3.841991E-2,3.5704564E-2,-8.1995595E-3,3.2191433E-3,-2.632354E-2,3.9838128E-2,8.134093E-2,-1.26270875E-2,3.7602697E-2,3.9834226E-4,4.2708177E-2,-3.9720755E-2,-2.6777026E-3,6.0726035E-2,1.01670936E-1,6.328767E-2,1.6854098E-2,1.0457659E-1,6.636177E-2,3.644839E-2,8.105395E-2],"split_indices":[99,25,99,75,99,4,99,26,99,99,3,3,3,4,4,87,54,4,3,99,4,4,4,99,99,99,99,99,3,3,99,0,0,0,0,0,0,0,0,0,0,0,0,0,0,0,0,0,0,0,0,0,0,0,0,0,0,0,0,0,0,0,0],"split_type":[0,0,0,0,0,0,0,0,0,0,0,0,0,0,0,0,0,0,0,0,0,0,0,0,0,0,0,0,0,0,0,0,0,0,0,0,0,0,0,0,0,0,0,0,0,0,0,0,0,0,0,0,0,0,0,0,0,0,0,0,0,0,0],"sum_hessian":[6.989E3,3.586E3,3.403E3,2.582E3,1.004E3,1.773E3,1.63E3,2.212E3,3.7E2,3.83E2,6.21E2,5.73E2,1.2E3,9.73E2,6.57E2,2.202E3,1E1,2.27E2,1.43E2,2.2E2,1.63E2,1.99E2,4.22E2,3.78E2,1.95E2,5.5E2,6.5E2,2.1E2,7.63E2,4.14E2,2.43E2,5.7E1,2.145E3,7E0,3E0,1.9E2,3.7E1,4.4E1,9.9E1,1.48E2,7.2E1,1.39E2,2.4E1,1.46E2,5.3E1,1.73E2,2.49E2,2.89E2,8.9E1,9E1,1.05E2,3.46E2,2.04E2,2.11E2,4.39E2,1.53E2,5.7E1,1.66E2,5.97E2,9.4E1,3.2E2,1.85E2,5.8E1],"tree_param":{"num_deleted":"0","num_feature":"103","num_nodes":"63","size_leaf_vector":"1"}},{"base_weights":[1.1532818E-3,-4.9543867E-1,5.9115696E-1,-6.296305E-1,-1.786827E-1,3.658584E-1,1.1037693E0,-6.6941893E-1,-4.0388334E-1,-5.3604823E-1,5.01657E-3,4.8006725E-1,-4.1794676E-1,1.7349093E0,1.0131592E0,-6.7353475E-1,-4.8796475E-2,-5.1036185E-1,-9.7840615E-2,-6.42915E-1,-3.8877013E-1,4.9017E-1,-1.8652448E-1,1.1171544E0,3.7276602E-1,-1.0430114E-1,-8.685891E-1,2.319334E0,1.3583508E0,7.738128E-1,1.3546313E0,-3.3738032E-2,5.926609E-4,1.338237E-2,-1.6232904E-2,-1.8873906E-2,-3.384409E-2,2.0729657E-2,-2.1629825E-2,-3.4195837E-2,-2.7520983E-2,-1.4139846E-2,-3.0579088E-2,3.3196464E-2,-2.8620872E-3,7.512393E-3,-1.9664334E-2,4.1450456E-2,7.18182E-2,-3.5828908E-4,3.278635E-2,-3.8727872E-2,2.9550747E-3,-4.6977606E-2,2.9449603E-2,9.1934495E-2,1.2947328E-1,5.3970154E-2,1.1684711E-1,6.902609E-2,2.743574E-2,8.6010024E-2,5.232221E-2],"categories":[],"categories_nodes":[],"categories_segments":[],"categories_sizes":[],"default_left":[0,0,0,0,0,0,0,0,0,0,0,0,0,0,0,0,0,0,0,0,0,0,0,0,0,0,0,0,0,0,0,0,0,0,0,0,0,0,0,0,0,0,0,0,0,0,0,0,0,0,0,0,0,0,0,0,0,0,0,0,0,0,0],"id":23,"left_children":[1,3,5,7,9,11,13,15,17,19,21,23,25,27,29,31,33,35,37,39,41,43,45,47,49,51,53,55,57,59,61,-1,-1,-1,-1,-1,-1,-1,-1,-1,-1,-1,-1,-1,-1,-1,-1,-1,-1,-1,-1,-1,-1,-1,-1,-1,-1,-1,-1,-1,-1,-1,-1],"loss_changes":[2.0483005E3,1.6124054E2,3.6858948E2,2.3675903E1,7.4250336E1,1.9901901E2,5.4000366E1,5.7527466E0,1.3050026E1,5.7938843E0,6.960068E1,1.3213406E2,3.9909195E1,2.3478027E1,6.883099E1,1.8984985E0,1.4836093E0,6.3385773E0,1.8191074E1,4.616928E-1,3.6994247E0,2.0203E1,3.7451355E1,2.4471283E1,1.7857196E2,1.8445414E1,1.2551773E1,1.2112885E0,1.8223663E1,6.820984E1,3.7744873E1,0E0,0E0,0E0,0E0,0E0,0E0,0E0,0E0,0E0,0E0,0E0,0E0,0E0,0E0,0E0,0E0,0E0,0E0,0E0,0E0,0E0,0E0,0E0,0E0,0E0,0E0,0E0,0E0,0E0,0E0,0E0,0E0],"parents":[2147483647,0,0,1,1,2,2,3,3,4,4,5,5,6,6,7,7,8,8,9,9,10,10,11,11,12,12,13,13,14,14,15,15,16,16,17,17,18,18,19,19,20,20,21,21,22,22,23,23,24,24,25,25,26,26,27,27,28,28,29,29,30,30],"right_children":[2,4,6,8,10,12,14,16,18,20,22,24,26,28,30,32,34,36,38,40,42,44,46,48,50,52,54,56,58,60,62,-1,-1,-1,-1,-1,-1,-1,-1,-1,-1,-1,-1,-1,-1,-1,-1,-1,-1,-1,-1,-1,-1,-1,-1,-1,-1,-1,-1,-1,-1,-1,-1],"split_conditions":[2.8833142E-2,-3.6562717E-1,1.2201412E0,-3.8236287E-1,-7.3727083E-1,1.31791E0,7.1723694E-1,4.6303603E-1,-2.0588791E-1,-9.528216E-1,-7.159772E-1,-3.1175414E-1,-5.947844E-1,1.4871894E0,1.7630836E0,2.9078522E0,-3.6662233E-1,-8.2224745E-1,-2.3948835E-1,-1.079322E0,-9.021065E-1,-1.2696688E-1,-9.6002114E-1,3.3242837E-1,5.324817E-1,6.782437E-1,1.8701833E0,9.5900023E-1,1.664015E0,9.5861155E-1,1.834149E0,-3.3738032E-2,5.926609E-4,1.338237E-2,-1.6232904E-2,-1.8873906E-2,-3.384409E-2,2.0729657E-2,-2.1629825E-2,-3.4195837E-2,-2.7520983E-2,-1.4139846E-2,-3.0579088E-2,3.3196464E-2,-2.8620872E-3,7.512393E-3,-1.9664334E-2,4.1450456E-2,7.18182E-2,-3.5828908E-4,3.278635E-2,-3.8727872E-2,2.9550747E-3,-4.6977606E-2,2.9449603E-2,9.1934495E-2,1.2947328E-1,5.3970154E-2,1.1684711E-1,6.902609E-2,2.743574E-2,8.6010024E-2,5.232221E-2],"split_indices":[99,25,99,75,99,4,4,26,99,99,3,4,16,3,99,6,17,4,3,99,3,4,4,99,99,99,19,25,99,3,3,0,0,0,0,0,0,0,0,0,0,0,0,0,0,0,0,0,0,0,0,0,0,0,0,0,0,0,0,0,0,0,0],"split_type":[0,0,0,0,0,0,0,0,0,0,0,0,0,0,0,0,0,0,0,0,0,0,0,0,0,0,0,0,0,0,0,0,0,0,0,0,0,0,0,0,0,0,0,0,0,0,0,0,0,0,0,0,0,0,0,0,0,0,0,0,0,0,0],"sum_hessian":[6.989E3,3.795E3,3.194E3,2.665E3,1.13E3,2.22E3,9.74E2,2.264E3,4.01E2,3.83E2,7.47E2,1.938E3,2.82E2,1.2E2,8.54E2,2.249E3,1.5E1,2.97E2,1.04E2,2.2E2,1.63E2,2.11E2,5.36E2,2.78E2,1.66E3,1.67E2,1.15E2,4.5E1,7.5E1,5.04E2,3.5E2,2.245E3,4E0,7E0,8E0,1.67E2,1.3E2,4.1E1,6.3E1,1.48E2,7.2E1,1.12E2,5.1E1,1.6E2,5.1E1,2.04E2,3.32E2,1.48E2,1.3E2,7.09E2,9.51E2,3.2E1,1.35E2,1.1E2,5E0,1.9E1,2.6E1,6E1,1.5E1,1.35E2,3.69E2,1.58E2,1.92E2],"tree_param":{"num_deleted":"0","num_feature":"103","num_nodes":"63","size_leaf_vector":"1"}},{"base_weights":[1.1731131E-3,-5.0060445E-1,5.2992606E-1,-6.099112E-1,-2.191718E-1,2.7799857E-1,9.643742E-1,-6.309955E-1,-3.6355928E-1,-5.301876E-1,-5.1439777E-2,6.9778365E-1,6.261224E-2,7.845894E-1,1.2863083E0,-6.398068E-1,-3.0241543E-1,-2.7201247E-1,-8.9156675E-1,-3.168724E-2,-4.1937557E-1,3.5199872E-1,-2.7705073E-1,1.1902949E0,5.238447E-1,-3.2342228E-1,2.7593425E-1,1.450336E0,6.011104E-1,1.6927403E0,1.0507704E0,-3.162953E-2,-3.9431974E-2,-3.207464E-2,-2.676686E-3,-2.488788E-2,-2.9016589E-3,-5.901574E-2,-2.6206551E-2,-1.7494759E-2,-3.631769E-2,2.7251462E-2,-1.1004539E-2,-1.706151E-3,-2.720503E-2,8.996714E-2,5.1562417E-2,6.7999843E-3,4.4995625E-2,6.3898177E-3,-3.2881904E-2,2.3938121E-2,-2.0556604E-2,8.816355E-2,4.58143E-2,5.0286826E-2,1.1969002E-2,9.248989E-2,2.7506286E-2,7.043521E-2,3.619023E-2],"categories":[],"categories_nodes":[],"categories_segments":[],"categories_sizes":[],"default_left":[0,0,0,0,0,0,0,0,0,0,0,0,0,0,0,0,0,0,0,0,0,0,0,0,0,0,0,0,0,0,0,0,0,0,0,0,0,0,0,0,0,0,0,0,0,0,0,0,0,0,0,0,0,0,0,0,0,0,0,0,0],"id":24,"left_children":[1,3,5,7,9,11,13,15,17,19,21,23,25,27,29,31,33,35,37,-1,39,41,43,45,47,49,51,53,55,57,59,-1,-1,-1,-1,-1,-1,-1,-1,-1,-1,-1,-1,-1,-1,-1,-1,-1,-1,-1,-1,-1,-1,-1,-1,-1,-1,-1,-1,-1,-1],"loss_changes":[1.8548268E3,1.10211365E2,3.7229767E2,1.3187073E1,5.2400875E1,1.9489316E2,7.1281494E1,6.691345E0,9.714989E0,3.7735596E0,5.9624695E1,6.199893E1,1.17519844E2,9.733728E1,4.0916992E1,1.9874878E0,5.3666286E0,8.521062E0,2.5642529E0,0E0,3.4357662E0,2.6071175E1,2.7228432E1,1.6549133E1,7.893158E1,7.669267E1,1.2826538E2,2.729657E1,9.226227E1,2.8054321E1,3.2334534E1,0E0,0E0,0E0,0E0,0E0,0E0,0E0,0E0,0E0,0E0,0E0,0E0,0E0,0E0,0E0,0E0,0E0,0E0,0E0,0E0,0E0,0E0,0E0,0E0,0E0,0E0,0E0,0E0,0E0,0E0],"parents":[2147483647,0,0,1,1,2,2,3,3,4,4,5,5,6,6,7,7,8,8,9,9,10,10,11,11,12,12,13,13,14,14,15,15,16,16,17,17,18,18,20,20,21,21,22,22,23,23,24,24,25,25,26,26,27,27,28,28,29,29,30,30],"right_children":[2,4,6,8,10,12,14,16,18,20,22,24,26,28,30,32,34,36,38,-1,40,42,44,46,48,50,52,54,56,58,60,-1,-1,-1,-1,-1,-1,-1,-1,-1,-1,-1,-1,-1,-1,-1,-1,-1,-1,-1,-1,-1,-1,-1,-1,-1,-1,-1,-1,-1,-1],"split_conditions":[-8.919955E-2,-3.6562717E-1,1.0539162E0,-3.1268007E-1,-7.7073455E-1,1.20177425E-1,1.664015E0,1.3057303E0,1.5698291E-1,-1.0254136E0,-6.764947E-1,1.2786797E-1,4.363705E-1,8.161692E-1,1.664814E0,4.7251272E-1,-7.4113166E-1,-6.1793E-1,-8.0729085E-1,-3.168724E-2,-7.159772E-1,-2.7398053E-1,-7.162295E-1,-6.6239345E-1,3.5624912E-1,-1.935595E-2,1.0202342E0,1.5312696E0,1.0302726E0,2.6318133E0,1.6646712E0,-3.162953E-2,-3.9431974E-2,-3.207464E-2,-2.676686E-3,-2.488788E-2,-2.9016589E-3,-5.901574E-2,-2.6206551E-2,-1.7494759E-2,-3.631769E-2,2.7251462E-2,-1.1004539E-2,-1.706151E-3,-2.720503E-2,8.996714E-2,5.1562417E-2,6.7999843E-3,4.4995625E-2,6.3898177E-3,-3.2881904E-2,2.3938121E-2,-2.0556604E-2,8.816355E-2,4.58143E-2,5.0286826E-2,1.1969002E-2,9.248989E-2,2.7506286E-2,7.043521E-2,3.619023E-2],"split_indices":[99,25,99,26,99,4,99,97,4,99,3,3,99,3,3,4,18,99,10,0,3,4,4,4,99,3,3,4,4,4,4,0,0,0,0,0,0,0,0,0,0,0,0,0,0,0,0,0,0,0,0,0,0,0,0,0,0,0,0,0,0],"split_type":[0,0,0,0,0,0,0,0,0,0,0,0,0,0,0,0,0,0,0,0,0,0,0,0,0,0,0,0,0,0,0,0,0,0,0,0,0,0,0,0,0,0,0,0,0,0,0,0,0,0,0,0,0,0,0,0,0,0,0,0,0],"sum_hessian":[6.989E3,3.586E3,3.403E3,2.582E3,1.004E3,2.155E3,1.248E3,2.377E3,2.05E2,3.51E2,6.53E2,7.3E2,1.425E3,8.03E2,4.45E2,2.314E3,6.3E1,1.76E2,2.9E1,1.79E2,1.72E2,2.34E2,4.19E2,1.89E2,5.41E2,5.07E2,9.18E2,1.72E2,6.31E2,1.61E2,2.84E2,2.212E3,1.02E2,2.6E1,3.7E1,8.5E1,9.1E1,1.5E1,1.4E1,1.42E2,3E1,1.75E2,5.9E1,2.2E2,1.99E2,3.7E1,1.52E2,2.67E2,2.74E2,2.16E2,2.91E2,7.09E2,2.09E2,1.07E2,6.5E1,2.97E2,3.34E2,1.41E2,2E1,1.34E2,1.5E2],"tree_param":{"num_deleted":"0","num_feature":"103","num_nodes":"61","size_leaf_vector":"1"}},{"base_weights":[1.1539594E-3,-4.242952E-1,5.6648225E-1,-5.523569E-1,-8.787873E-2,3.6339256E-1,1.0171607E0,-6.102654E-1,-3.9582372E-1,4.823065E-1,-3.030138E-1,6.301824E-1,2.432055E-2,1.4020708E0,8.831395E-1,-3.1357586E-2,-5.528052E-1,-9.448075E-2,-6.6144484E-1,7.8561777E-1,-2.185737E-1,-1.3554956E-1,-7.026506E-1,1.0236838E0,4.6214592E-1,1.2817982E-1,-8.6090034E-1,1.9909259E0,1.2152339E0,6.953563E-1,1.3467442E0,-2.4891678E-2,-3.4768876E-2,9.517546E-3,-2.309376E-2,-2.8582308E-2,-4.1719668E-2,2.0392496E-2,5.611374E-2,-1.9654086E-2,1.4612205E-2,8.121438E-3,-2.9833559E-2,-3.1219414E-2,-6.691045E-2,4.3342482E-2,9.101906E-2,1.731026E-3,3.9227907E-2,-1.5140863E-2,1.94531E-2,-3.0466974E-2,-7.250359E-2,1.16176E-1,7.876745E-2,4.8299458E-2,8.838433E-2,4.9581233E-2,1.485336E-2,8.935464E-2,4.9076952E-2],"categories":[],"categories_nodes":[],"categories_segments":[],"categories_sizes":[],"default_left":[0,0,0,0,0,0,0,0,0,0,0,0,0,0,0,0,0,0,0,0,0,0,0,0,0,0,0,0,0,0,0,0,0,0,0,0,0,0,0,0,0,0,0,0,0,0,0,0,0,0,0,0,0,0,0,0,0,0,0,0,0],"id":25,"left_children":[1,3,5,7,9,11,13,15,17,19,21,23,25,27,29,-1,31,33,35,37,39,41,43,45,47,49,51,53,55,57,59,-1,-1,-1,-1,-1,-1,-1,-1,-1,-1,-1,-1,-1,-1,-1,-1,-1,-1,-1,-1,-1,-1,-1,-1,-1,-1,-1,-1,-1,-1],"loss_changes":[1.6814644E3,1.7180579E2,2.743977E2,2.5946045E1,1.3520235E2,1.8732935E2,4.6840088E1,1.6976929E0,6.26112E1,6.437233E1,5.3444656E1,7.616293E1,8.405011E1,2.3875275E1,5.94812E1,0E0,3.470642E0,3.8597492E1,5.983734E0,2.6376877E1,8.315922E0,7.7730316E1,1.0903152E1,4.165451E1,1.12174164E2,9.209329E1,1.33448105E1,4.0798645E0,2.362851E1,5.8233643E1,3.0248596E1,0E0,0E0,0E0,0E0,0E0,0E0,0E0,0E0,0E0,0E0,0E0,0E0,0E0,0E0,0E0,0E0,0E0,0E0,0E0,0E0,0E0,0E0,0E0,0E0,0E0,0E0,0E0,0E0,0E0,0E0],"parents":[2147483647,0,0,1,1,2,2,3,3,4,4,5,5,6,6,7,7,8,8,9,9,10,10,11,11,12,12,13,13,14,14,16,16,17,17,18,18,19,19,20,20,21,21,22,22,23,23,24,24,25,25,26,26,27,27,28,28,29,29,30,30],"right_children":[2,4,6,8,10,12,14,16,18,20,22,24,26,28,30,-1,32,34,36,38,40,42,44,46,48,50,52,54,56,58,60,-1,-1,-1,-1,-1,-1,-1,-1,-1,-1,-1,-1,-1,-1,-1,-1,-1,-1,-1,-1,-1,-1,-1,-1,-1,-1,-1,-1,-1,-1],"split_conditions":[1.2527351E-1,-4.6283755E-1,1.2471421E0,-9.002123E-1,-6.048753E-1,6.9342464E-1,1.0741068E0,-1.0889674E0,-8.719552E-1,2.7016917E-1,3.9139204E-2,3.779456E-1,1.7100568E0,1.2438384E0,2.0128849E0,-3.1357586E-2,-9.597576E-1,-7.159772E-1,-7.400001E-1,-2.9825738E-1,-4.1562626E-3,3.956644E-1,7.399225E-1,6.074034E-1,5.789655E-1,6.9004816E-1,2.0381386E0,7.9167116E-1,1.664015E0,1.4753752E0,1.995468E0,-2.4891678E-2,-3.4768876E-2,9.517546E-3,-2.309376E-2,-2.8582308E-2,-4.1719668E-2,2.0392496E-2,5.611374E-2,-1.9654086E-2,1.4612205E-2,8.121438E-3,-2.9833559E-2,-3.1219414E-2,-6.691045E-2,4.3342482E-2,9.101906E-2,1.731026E-3,3.9227907E-2,-1.5140863E-2,1.94531E-2,-3.0466974E-2,-7.250359E-2,1.16176E-1,7.876745E-2,4.8299458E-2,8.838433E-2,4.9581233E-2,1.485336E-2,8.935464E-2,4.9076952E-2],"split_indices":[99,99,99,99,4,4,4,99,4,3,3,3,4,3,99,0,3,3,3,99,99,4,3,99,99,99,4,4,99,3,3,0,0,0,0,0,0,0,0,0,0,0,0,0,0,0,0,0,0,0,0,0,0,0,0,0,0,0,0,0,0],"split_type":[0,0,0,0,0,0,0,0,0,0,0,0,0,0,0,0,0,0,0,0,0,0,0,0,0,0,0,0,0,0,0,0,0,0,0,0,0,0,0,0,0,0,0,0,0,0,0,0,0,0,0,0,0,0,0,0,0,0,0,0,0],"sum_hessian":[6.989E3,3.988E3,3.001E3,2.888E3,1.1E3,2.07E3,9.31E2,2.106E3,7.82E2,3.01E2,7.99E2,1.158E3,9.12E2,2.38E2,6.93E2,1.62E3,4.86E2,3.67E2,4.15E2,2.1E2,9.1E1,5.64E2,2.35E2,3.45E2,8.13E2,8.17E2,9.5E1,5.5E1,1.83E2,4.95E2,1.98E2,3.54E2,1.32E2,2.07E2,1.6E2,2.76E2,1.39E2,1E2,1.1E2,6.8E1,2.3E1,3.43E2,2.21E2,2.11E2,2.4E1,2.9E2,5.5E1,3.5E2,4.63E2,3.08E2,5.09E2,6.8E1,2.7E1,2.8E1,2.7E1,1.28E2,5.5E1,2.83E2,2.12E2,8.8E1,1.1E2],"tree_param":{"num_deleted":"0","num_feature":"103","num_nodes":"61","size_leaf_vector":"1"}},{"base_weights":[1.151809E-3,-4.5336497E-1,4.801032E-1,-5.519557E-1,-1.9952087E-1,1.8956871E-1,7.958163E-1,-5.7074976E-1,-3.3232418E-1,-4.292475E-1,-7.1589975E-3,4.6661097E-1,-1.8238583E-1,6.288903E-1,1.120969E0,-5.7915604E-1,-2.973832E-1,-2.4647115E-1,-8.277796E-1,-5.5168027E-1,-3.1375638E-1,3.27795E-1,-3.5073853E-1,9.860894E-1,2.5602642E-1,1.1753581E-1,-4.671895E-1,7.7660036E-1,-1.3421512E-1,1.3834118E0,8.554269E-1,-2.8614981E-2,-3.6012437E-2,-2.553461E-2,2.1934016E-3,-2.5797954E-2,-4.8347693E-3,-4.420438E-2,2.0128775E-2,-2.936401E-2,-2.3573002E-2,-1.0821565E-2,-3.2068726E-2,2.6853582E-2,-2.2076402E-2,-3.730287E-3,-3.0429352E-2,4.3136675E-2,8.513733E-2,3.2038428E-2,6.2507717E-4,-1.2685033E-2,3.1421117E-2,-4.390366E-2,-1.251463E-2,7.634994E-2,3.1688686E-2,1.9563546E-3,-5.4612823E-2,6.1376333E-2,9.8040156E-2,3.571857E-2,8.366609E-2],"categories":[],"categories_nodes":[],"categories_segments":[],"categories_sizes":[],"default_left":[0,0,0,0,0,0,0,0,0,0,0,0,0,0,0,0,0,0,0,0,0,0,0,0,0,0,0,0,0,0,0,0,0,0,0,0,0,0,0,0,0,0,0,0,0,0,0,0,0,0,0,0,0,0,0,0,0,0,0,0,0,0,0],"id":26,"left_children":[1,3,5,7,9,11,13,15,17,19,21,23,25,27,29,31,33,35,37,39,41,43,45,47,49,51,53,55,57,59,61,-1,-1,-1,-1,-1,-1,-1,-1,-1,-1,-1,-1,-1,-1,-1,-1,-1,-1,-1,-1,-1,-1,-1,-1,-1,-1,-1,-1,-1,-1,-1,-1],"loss_changes":[1.5218809E3,8.966058E1,3.1208295E2,1.047229E1,4.4408524E1,1.8289069E2,8.781995E1,5.2924194E0,8.558464E0,6.3029785E0,6.318064E1,1.1100137E2,6.4802345E1,1.2184009E2,3.7285217E1,1.8186646E0,5.336216E0,7.0943174E0,2.4342747E0,3.542633E-1,7.4499264E0,4.4995506E1,1.9249916E1,2.443335E1,6.7920334E1,7.033352E1,3.444767E1,9.6027405E1,2.9270885E1,2.2434814E1,3.076175E1,0E0,0E0,0E0,0E0,0E0,0E0,0E0,0E0,0E0,0E0,0E0,0E0,0E0,0E0,0E0,0E0,0E0,0E0,0E0,0E0,0E0,0E0,0E0,0E0,0E0,0E0,0E0,0E0,0E0,0E0,0E0,0E0],"parents":[2147483647,0,0,1,1,2,2,3,3,4,4,5,5,6,6,7,7,8,8,9,9,10,10,11,11,12,12,13,13,14,14,15,15,16,16,17,17,18,18,19,19,20,20,21,21,22,22,23,23,24,24,25,25,26,26,27,27,28,28,29,29,30,30],"right_children":[2,4,6,8,10,12,14,16,18,20,22,24,26,28,30,32,34,36,38,40,42,44,46,48,50,52,54,